/* Generated by Edge Impulse
 *
 * Permission is hereby granted, free of charge, to any person obtaining a copy
 * of this software and associated documentation files (the "Software"), to deal
 * in the Software without restriction, including without limitation the rights
 * to use, copy, modify, merge, publish, distribute, sublicense, and/or sell
 * copies of the Software, and to permit persons to whom the Software is
 * furnished to do so, subject to the following conditions:
 *
 * The above copyright notice and this permission notice shall be included in
 * all copies or substantial portions of the Software.
 *
 * THE SOFTWARE IS PROVIDED "AS IS", WITHOUT WARRANTY OF ANY KIND, EXPRESS OR
 * IMPLIED, INCLUDING BUT NOT LIMITED TO THE WARRANTIES OF MERCHANTABILITY,
 * FITNESS FOR A PARTICULAR PURPOSE AND NONINFRINGEMENT. IN NO EVENT SHALL THE
 * AUTHORS OR COPYRIGHT HOLDERS BE LIABLE FOR ANY CLAIM, DAMAGES OR OTHER
 * LIABILITY, WHETHER IN AN ACTION OF CONTRACT, TORT OR OTHERWISE, ARISING FROM,
 * OUT OF OR IN CONNECTION WITH THE SOFTWARE OR THE USE OR OTHER DEALINGS IN THE
 * SOFTWARE.
 */
// Generated on: 13.03.2024 23:24:34

#include <stdio.h>
#include <stdlib.h>
#include "edge-impulse-sdk/tensorflow/lite/c/builtin_op_data.h"
#include "edge-impulse-sdk/tensorflow/lite/c/common.h"
#include "edge-impulse-sdk/tensorflow/lite/micro/micro_mutable_op_resolver.h"
#include "edge-impulse-sdk/porting/ei_classifier_porting.h"

#if EI_CLASSIFIER_PRINT_STATE
#if defined(__cplusplus) && EI_C_LINKAGE == 1
extern "C" {
    extern void ei_printf(const char *format, ...);
}
#else
extern void ei_printf(const char *format, ...);
#endif
#endif

#if defined __GNUC__
#define ALIGN(X) __attribute__((aligned(X)))
#elif defined _MSC_VER
#define ALIGN(X) __declspec(align(X))
#elif defined __TASKING__
#define ALIGN(X) __align(X)
#elif defined __ICCARM__
#define ALIGN(x) __attribute__((aligned(x)))
#endif

#ifndef EI_MAX_SCRATCH_BUFFER_COUNT
#ifndef CONFIG_IDF_TARGET_ESP32S3
#define EI_MAX_SCRATCH_BUFFER_COUNT 30
#else
#define EI_MAX_SCRATCH_BUFFER_COUNT 60
#endif // CONFIG_IDF_TARGET_ESP32S3
#endif // EI_MAX_SCRATCH_BUFFER_COUNT

#ifndef EI_MAX_OVERFLOW_BUFFER_COUNT
#define EI_MAX_OVERFLOW_BUFFER_COUNT 10
#endif // EI_MAX_OVERFLOW_BUFFER_COUNT

using namespace tflite;
using namespace tflite::ops;
using namespace tflite::ops::micro;

namespace {

#if defined(EI_CLASSIFIER_ALLOCATION_STATIC_HIMAX) || defined(EI_CLASSIFIER_ALLOCATION_STATIC_HIMAX_GNU)
constexpr int kTensorArenaSize = 56432;
#else
constexpr int kTensorArenaSize = 55408;
#endif

#if defined(EI_CLASSIFIER_ALLOCATION_STATIC)
uint8_t tensor_arena[kTensorArenaSize] ALIGN(16);
#elif defined(EI_CLASSIFIER_ALLOCATION_STATIC_HIMAX)
#pragma Bss(".tensor_arena")
uint8_t tensor_arena[kTensorArenaSize] ALIGN(16);
#pragma Bss()
#elif defined(EI_CLASSIFIER_ALLOCATION_STATIC_HIMAX_GNU)
uint8_t tensor_arena[kTensorArenaSize] ALIGN(16) __attribute__((section(".tensor_arena")));
#else
#define EI_CLASSIFIER_ALLOCATION_HEAP 1
uint8_t* tensor_arena = NULL;
#endif

static uint8_t* tensor_boundary;
static uint8_t* current_location;

template <int SZ, class T> struct TfArray {
  int sz; T elem[SZ];
};

enum used_operators_e {
  OP_CONV_2D, OP_DEPTHWISE_CONV_2D, OP_PAD, OP_MEAN, OP_FULLY_CONNECTED, OP_SOFTMAX,  OP_LAST
};

struct TensorInfo_t { // subset of TfLiteTensor used for initialization from constant memory
  TfLiteAllocationType allocation_type;
  TfLiteType type;
  void* data;
  TfLiteIntArray* dims;
  size_t bytes;
  TfLiteQuantization quantization;
};

typedef struct {
  TfLiteTensor tensor;
  int16_t index;
} TfLiteTensorWithIndex;

typedef struct {
  TfLiteEvalTensor tensor;
  int16_t index;
} TfLiteEvalTensorWithIndex;

TfLiteContext ctx{};
static const int MAX_TFL_TENSOR_COUNT = 4;
static TfLiteTensorWithIndex tflTensors[MAX_TFL_TENSOR_COUNT];
static const int MAX_TFL_EVAL_COUNT = 4;
static TfLiteEvalTensorWithIndex tflEvalTensors[MAX_TFL_EVAL_COUNT];
TfLiteRegistration registrations[OP_LAST];

namespace g0 {
const TfArray<4, int> tensor_dimension0 = { 4, { 1,96,96,3 } };
const TfArray<1, float> quant0_scale = { 1, { 0.0039215688593685627, } };
const TfArray<1, int> quant0_zero = { 1, { -128 } };
const TfLiteAffineQuantization quant0 = { (TfLiteFloatArray*)&quant0_scale, (TfLiteIntArray*)&quant0_zero, 0 };
const ALIGN(16) int32_t tensor_data1[4*2] = { 
  0, 0, 
  0, 1, 
  0, 1, 
  0, 0, 
};
const TfArray<2, int> tensor_dimension1 = { 2, { 4,2 } };
const ALIGN(8) int32_t tensor_data2[2] = { 1, 2, };
const TfArray<1, int> tensor_dimension2 = { 1, { 2 } };
const ALIGN(16) int32_t tensor_data3[8] = { 25, -925, -146, 365, -232, 732, 381, -214, };
const TfArray<1, int> tensor_dimension3 = { 1, { 8 } };
const TfArray<1, float> quant3_scale = { 1, { 6.9162320869509131e-05, } };
const TfArray<1, int> quant3_zero = { 1, { 0 } };
const TfLiteAffineQuantization quant3 = { (TfLiteFloatArray*)&quant3_scale, (TfLiteIntArray*)&quant3_zero, 0 };
const ALIGN(16) int8_t tensor_data4[8*64] = { 
  -55, 51, -84, 38, 49, 73, 33, -27, -29, -101, 67, -37, -74, -1, 2, -29, -9, 42, 29, -85, -34, -75, 42, 26, 41, 19, -40, -83, 93, -52, -39, -16, 20, -84, 35, -34, 24, -45, 62, -27, -82, -51, 101, 15, -43, 7, 29, -95, 52, -21, -92, -30, -65, -18, -80, -9, 35, 0, -10, -18, -54, -16, -16, -7, 
  -34, -72, -22, -1, 49, -6, -30, 19, 65, 61, 15, -14, 65, 36, 14, -25, 79, -81, -81, 28, -48, -49, 59, 76, 75, 88, 70, -18, -62, 2, -26, -78, 39, 7, 17, -62, -16, -45, 33, 9, 90, 74, -37, 67, 46, 45, 58, -55, -40, 50, 13, -70, -50, 59, -32, -50, -2, 88, -87, 47, -20, -82, 45, 34, 
  -70, -34, 32, -33, 55, 19, -76, -27, -53, -127, -4, -42, 47, 66, 95, 59, 9, -108, 9, -72, 20, 66, -52, -107, 87, 40, 40, -62, 2, -74, 28, -72, -25, -32, -63, -59, 85, -20, -69, 25, -7, 74, -76, 72, 21, -76, 11, 86, -77, -24, 43, 48, 35, -32, -16, 58, -87, -2, -12, -67, -67, -79, -44, 35, 
  -47, 83, -112, -89, -76, -53, -78, -59, 63, -42, 1, -72, 37, 33, 21, -69, -50, 30, 52, -34, -53, -67, -93, 24, -89, 70, 102, -37, 24, -52, -65, 26, 32, 0, -73, 59, -75, 52, 37, 22, -38, -7, -74, -80, -1, -74, 64, 43, 19, -41, 29, 64, -19, -23, -33, -73, -83, 60, -39, 57, 15, -27, 35, -47, 
  -18, 72, 33, -27, -45, -65, 45, -2, -44, -53, 40, -20, 20, -76, -42, -59, 10, 17, -54, -30, 43, -27, 95, -45, -96, -63, 45, 41, 15, 61, 62, -7, 40, 36, 23, -109, -63, -29, -79, 49, 36, -54, 72, -102, -82, 18, 10, -49, -27, -30, -68, -32, 69, 14, -41, 55, -58, -11, -74, 81, -53, -6, 10, 15, 
  24, -5, 79, -108, -9, -94, -62, 72, -49, 36, 41, -102, -61, -57, -41, 48, 86, -35, 4, 14, -40, 4, -32, 3, 33, -3, -70, -61, 35, -7, 71, -61, 57, -22, 38, -28, 0, -63, 14, 89, 5, -50, -30, 37, -36, 49, -49, -49, 30, -58, 25, 30, -72, 1, 31, -62, -40, 63, -79, -8, 61, 16, -72, -1, 
  1, -42, -68, -8, 46, 29, 62, 69, -45, -13, 65, -64, -45, 97, 91, -88, -59, -50, -29, -75, -70, 56, -16, -6, -63, 30, -78, -52, -6, -20, 20, -25, -74, -41, -10, 48, -55, -31, -77, -13, -7, 61, 45, 78, -24, 45, -27, 33, 22, -25, 39, 39, 3, 32, -58, -71, -71, 9, -10, 28, 32, -13, 24, 22, 
  -62, -73, -29, 22, -45, -94, -9, 5, 2, 71, 6, 31, -111, 13, -4, -31, -110, -4, -36, 85, -86, 29, 12, -83, 25, 17, 59, 36, -26, -86, 41, -27, -71, 40, -76, -16, 33, 26, 58, -10, -96, 60, 39, 14, 21, 46, 71, -23, -74, -73, 38, 69, 50, 72, 81, 4, 22, -5, -9, -35, -17, 22, 76, -88, 
};
const TfArray<2, int> tensor_dimension4 = { 2, { 8,64 } };
const TfArray<1, float> quant4_scale = { 1, { 0.0034219846129417419, } };
const TfArray<1, int> quant4_zero = { 1, { 0 } };
const TfLiteAffineQuantization quant4 = { (TfLiteFloatArray*)&quant4_scale, (TfLiteIntArray*)&quant4_zero, 0 };
const ALIGN(16) int32_t tensor_data5[64] = { 109, -258, 93, 10, 87, 279, -125, -560, -362, 305, -175, 298, 35, 72, 710, -51, 335, 97, -110, 33, -156, 280, 266, 27, -90, 251, -348, -86, 116, -294, 283, -524, 35, 236, -94, -113, -118, -465, -91, -131, 361, -540, 322, 270, -134, -592, -493, 204, -417, 207, 233, 292, -264, -377, 0, -58, -173, -274, -437, -514, -146, -408, -201, 45, };
const TfArray<1, int> tensor_dimension5 = { 1, { 64 } };
const TfArray<1, float> quant5_scale = { 1, { 5.9630136092891917e-05, } };
const TfArray<1, int> quant5_zero = { 1, { 0 } };
const TfLiteAffineQuantization quant5 = { (TfLiteFloatArray*)&quant5_scale, (TfLiteIntArray*)&quant5_zero, 0 };
const ALIGN(16) int8_t tensor_data6[64*102] = { 
  50, -53, 33, -37, 33, 17, -20, 56, -25, 41, -45, -16, -16, -4, -45, 80, 52, 55, -21, 30, 66, -73, -6, 1, -28, -98, 21, -47, -46, 12, -42, 58, -67, 61, -9, -40, 13, 8, -6, 56, -38, -32, 16, 56, -80, -31, -6, -15, 65, 68, -11, 3, -26, 62, 90, -25, -13, 4, 35, -13, -19, -48, -54, 61, 37, -27, 65, 52, -66, -70, 37, 59, -111, -31, -42, -48, -14, 19, -10, -13, 45, 18, -69, 21, 11, 78, 2, 17, -71, 16, 31, 37, -25, 65, -64, -5, -23, 35, 43, 68, -4, -68, 
  -9, 64, 61, -17, 49, 6, -45, 29, 56, -6, -67, -77, 31, -73, 19, -30, -53, 55, 40, -75, -39, -37, -76, -10, 50, -54, -16, -50, 22, 30, 17, 29, 72, -7, 41, -69, 80, -58, 35, 75, 39, -7, 17, -39, 18, 74, -3, -24, -23, -67, 64, -57, 39, -17, 60, 83, 26, 60, -54, -19, 61, -27, -22, -62, -41, -37, -49, -7, 46, 0, 25, 13, 28, -50, 58, -45, 43, 66, -7, -4, 36, -66, 30, 15, -61, 14, -30, 56, 69, 53, -67, -88, -36, -98, 67, -22, -63, 57, 3, -1, -76, -59, 
  -8, 43, -49, -8, 35, -15, -50, 32, 84, -36, -77, -36, -14, -26, 30, 46, 19, 16, 43, -39, 46, -53, 67, 12, 2, -5, -69, -53, -19, -63, -50, -21, -58, 31, 51, 27, 57, -28, 73, -32, 28, -63, 67, 54, -22, 17, 11, -54, 67, -57, -38, 8, -33, -5, 42, 82, 40, -49, -47, 59, 66, -48, 61, 5, -42, 7, -32, 36, -62, -56, 57, 30, -72, -51, 31, -79, 72, 56, 15, -24, -33, 42, -19, 52, 3, -49, 20, -83, -30, -44, 49, -51, 11, 36, 60, 69, 25, 43, -29, 18, 18, 4, 
  -27, -34, 40, -19, -70, 67, 4, 42, -25, 15, -41, 43, -54, -31, -82, -20, 45, 40, -80, -25, 80, -28, -54, -15, -20, -10, 32, 6, 65, 80, -36, -10, 34, 25, 34, -59, 4, 20, -16, -89, -8, 63, -63, -17, 50, -69, 17, 8, 20, -40, -43, -40, -20, -43, -30, 6, 20, -52, -15, 69, 69, 6, -8, -49, 24, -29, -10, 66, 28, 40, -69, -31, -64, -1, -15, -5, -50, 54, 35, 18, -18, 50, -83, -28, 62, 51, 49, 70, -31, 50, -43, -54, -3, 39, -14, -83, -36, -6, 11, -20, -63, 55, 
  -56, -42, 6, 31, 41, 67, -5, -55, 37, 10, 9, 38, -33, -25, -2, 34, -24, 60, 23, 36, 33, -32, 32, -69, 83, -77, -29, -75, 13, -2, -3, -63, -53, 11, 51, -81, 66, 0, -3, -27, -35, 71, -81, 34, -30, 12, -81, -24, -6, -23, 3, -3, -40, 1, -51, -7, -15, 24, 46, -67, -42, 4, 51, 86, -62, 45, 16, -27, 57, 79, 44, -20, -48, -51, -44, 34, -64, -19, 41, -1, 85, 49, 88, -16, -59, -12, 30, -55, -10, 8, 3, -9, 33, -16, -73, -41, 56, -28, 41, 54, -41, 0, 
  1, 29, 70, 45, 57, -52, -92, 73, 58, 32, 50, 63, 58, -71, -62, 55, 53, -56, -42, -1, 56, -12, -73, -64, -10, -24, 54, -70, -46, -34, 69, -17, 39, 77, -1, -80, -56, 10, 21, 57, -3, -31, 35, 14, -24, -18, -44, -46, 36, -70, 53, 43, 45, 64, -18, 52, -10, 3, 31, 46, -40, -55, 18, -20, -55, -53, -81, 44, 32, 41, -63, -26, 24, 0, -26, -27, 2, 63, -28, 81, 5, -30, 94, -71, 66, 0, 58, 58, -45, -15, -44, 50, 104, 35, -78, -45, -24, 7, -76, -21, -20, 2, 
  -53, 56, 13, 19, -73, 65, -42, 25, 39, 79, 48, -38, -93, -40, -7, -38, -66, -53, 62, 0, -17, 57, -49, 43, -33, -52, 44, -56, -7, -20, -49, -66, -24, -56, 46, 3, -13, -2, 46, -4, -24, 41, -82, -88, -38, -42, -40, -8, -14, -77, -21, 36, 23, -70, 18, 68, -47, -2, 23, 36, 61, 13, 64, 21, -18, 3, 44, -20, 14, -3, -67, 16, -60, -69, 57, -106, -24, -85, 49, 37, -24, 60, 9, 15, -29, -22, 60, 4, -73, 9, 57, -19, 32, 39, -42, -106, -24, 3, -45, -30, 59, 64, 
  21, -91, 50, 68, -55, -19, -76, 5, -52, -11, 6, -27, -63, 22, -88, 67, -2, -23, -7, -68, 6, 24, -74, 17, 6, -57, 21, -30, 44, -91, 41, 36, 34, -2, -1, 34, 12, -18, 36, -66, 30, 6, -80, -15, 32, 51, 64, 2, 40, -32, 14, 39, -68, -18, -51, -21, -75, 35, 31, -29, 33, -68, -33, 59, 11, -12, 11, 1, 44, -45, -75, -7, 32, 42, 6, -54, 15, -44, -48, -6, -6, 60, 36, -28, 56, -3, 3, -90, 35, -89, 18, 52, 22, -16, -23, 4, -39, -13, -2, 33, 19, 31, 
  -32, -16, 59, -25, 47, 25, -46, 58, 37, -46, 36, -65, -2, 37, 28, 41, 57, -6, 64, 16, -8, 9, -32, 4, 49, 25, -12, 38, 60, -6, 36, -39, 22, 2, 14, -37, 27, -3, -57, -72, 45, -76, -41, 58, 18, 60, -7, 22, 35, 54, -69, -69, -35, 15, -45, 38, 48, -81, 3, 66, -49, -29, 62, 65, -56, -22, 5, -23, -53, -30, 51, -61, -52, 64, 33, -50, -24, 26, -49, -45, -66, -21, 31, 65, -25, 9, -28, -17, -11, 47, -69, -38, 21, 56, 6, -64, -71, 27, -65, -78, -76, 21, 
  49, 3, -75, 58, 47, 17, 94, 48, -7, 41, -41, 50, -61, 3, -36, 73, 77, -25, -48, -22, -35, 12, -49, 77, -46, 70, 38, 29, -52, 33, -33, 14, -60, -28, -70, 57, -70, -39, 50, -25, -19, 30, 27, -79, -9, 29, -5, 56, -32, 72, -53, -26, -45, -10, -33, -12, -20, -60, 54, 4, -82, 42, -7, -32, -41, 97, -19, -41, 25, -28, 54, -16, 21, 51, 52, 22, 58, 56, 91, -60, -60, -29, -50, -2, 69, 63, 39, -51, -90, -33, -5, -30, -49, 54, -26, 41, -12, 13, 30, 56, -30, 78, 
  52, 60, 38, 37, 35, -5, -4, 7, 28, 17, -34, -6, -42, 0, -32, 9, -40, 68, 36, -7, -2, -29, -75, -67, -55, 56, 33, -41, 55, -37, 14, -50, -58, -18, 7, 43, -16, 4, 24, -4, 69, -34, -37, 18, -48, 34, -43, -26, -63, 22, -69, -25, 41, -15, 6, 38, -2, 32, -58, 22, -16, -39, 67, -72, -33, -76, -52, -3, -9, -33, 2, -54, -66, -21, 5, -64, 8, 31, -19, 20, -55, 36, -16, 0, -61, -56, -2, -64, -75, -72, -23, 47, -38, 31, 69, -23, -38, 52, 65, -64, -9, -20, 
  -10, 4, 12, -11, 65, -28, 59, 39, -53, 54, 53, -30, -53, 57, -57, -36, -75, -39, -41, 81, -4, 34, -71, -55, 50, 20, -31, 19, 29, -53, 23, -36, -68, -76, -14, -29, -9, -40, -59, 38, 49, -39, -44, 63, -38, -34, 70, -65, -65, 46, 66, 8, 49, 76, -48, -65, -61, -75, 37, 10, 55, -44, 70, -6, -28, -68, -49, 96, 51, -44, 10, 33, 48, -5, 55, -25, -47, 11, -17, -35, -42, -52, -19, 6, -1, -2, 69, 4, -22, 30, -21, -46, 14, 83, -37, 24, -47, 22, -58, 30, -64, 85, 
  44, -21, 36, -9, -37, -48, 64, 26, 49, -54, -75, 28, -12, -84, -69, 25, 36, -10, -14, -25, -22, -31, -9, 34, 70, -42, -33, 83, -58, -15, 1, -36, 6, -30, -13, 23, 36, 6, -5, -13, 21, 61, 41, 92, -27, -72, -62, -2, -52, -53, 78, 82, 77, -59, -81, 27, 47, -27, 77, -53, -47, -4, -24, -73, 35, 22, -17, -39, -15, 34, 12, -50, -52, 69, 39, -15, 53, -60, -53, 90, -51, 54, 9, 10, 13, -25, 26, 10, -37, 57, -15, -18, 44, -76, 39, 76, -42, -4, 65, -42, 59, 41, 
  -23, -28, -65, 40, -20, -20, -56, -32, 14, 32, 79, 14, 36, 29, 20, 35, -24, 51, 29, -63, -22, 88, 22, -19, 31, -35, 46, -69, -48, -28, -68, -59, -27, -63, 36, 44, 38, 78, 45, 5, -68, -61, 25, 29, 26, 56, -59, 9, -10, 45, -21, -16, -95, 19, 10, -57, -29, -28, 47, 43, -57, -67, -14, 53, -8, -10, -92, 11, 66, 6, 37, -81, -56, 33, 61, -6, -38, -58, 29, 25, 23, 56, 1, 0, 11, -2, -44, -23, -58, 23, 2, 3, 112, 83, 0, -92, -28, -39, -81, 48, 103, -11, 
  -33, -37, -60, -68, 25, 54, -16, 10, -87, -91, 45, 90, -41, 13, 24, 19, -42, 124, -38, -13, 33, -30, -64, -54, 29, -61, 34, -1, -53, 59, -26, -11, -12, -54, -39, 32, 71, 43, -55, 44, -47, -76, 33, 58, -21, -77, -46, 51, -17, -44, 6, 53, 41, 4, -66, -13, 3, 60, 38, 89, -39, 44, -71, 47, 46, -14, 21, -9, -10, -19, -10, 29, -22, -58, 69, -57, -11, -34, 86, -16, 17, -29, 90, 8, 26, 70, 35, -22, -5, 37, -9, -32, 73, 70, 16, 25, -36, -8, 9, -61, 81, 40, 
  -9, 13, -27, -7, 31, -2, 67, -20, 87, -8, -60, 36, 67, 35, -29, 67, 28, 6, 36, 76, 66, -39, -43, -9, -9, 33, 19, 29, 12, 85, -18, 24, -82, -1, -46, -29, -77, 35, 63, -85, 40, -1, -46, -2, 52, 13, 57, 38, 11, 74, -54, -37, 46, -19, -24, 14, -37, 5, 12, -11, 60, 45, -73, -45, 15, -8, -69, 65, -17, -61, -48, 66, 51, -49, -26, 4, 27, -9, 65, -45, -25, -3, 56, 25, -31, -57, -49, -9, -56, -66, 35, 22, -44, -14, 45, 17, 42, -30, 36, -3, 29, 13, 
  -11, -4, 12, -42, 54, -65, -33, 80, 37, -57, -67, 31, 77, -6, -45, 12, 53, 28, 62, -31, -20, 44, 41, -19, 34, -61, -56, 15, -26, -81, -55, 50, 12, 2, -52, 47, 36, -52, -34, 39, -9, -31, 33, -39, -8, 75, 2, 38, 58, -4, 6, -17, -35, 13, 94, -46, 42, 3, 76, 21, 38, 56, -52, 53, 58, -28, 20, -68, -16, -58, -39, 6, 15, 0, 69, 31, 56, -36, -14, -71, 32, 40, -95, -19, -64, 63, 8, 19, -84, -53, 9, 16, 4, -12, 32, -45, -19, -34, -58, -31, -33, 34, 
  9, 32, -30, -77, -50, -5, 51, 40, 9, 28, -85, -43, -39, 16, -37, -3, -85, 39, 38, -17, -14, 39, -4, 47, 67, 31, 5, 55, -32, -54, -44, -61, -5, -27, 4, -40, -54, -44, 3, -13, 14, 70, -57, -1, 94, 74, -2, -48, 23, 25, -8, -36, 21, -25, 30, 5, 81, 59, -106, 66, -46, 28, 66, -1, -11, -57, -15, 41, 66, -58, 23, -27, -45, 83, -51, -68, 26, 76, -48, 31, -51, -8, -73, 10, -38, 20, 53, 55, 14, -51, 55, 36, -81, -68, 84, -70, -13, -41, 33, -2, -19, 82, 
  -43, -24, -7, 0, -12, 3, -62, 14, -40, -58, 2, 78, 33, -59, -51, -20, 30, -9, 27, -70, 24, 27, 1, 2, -53, 24, -49, -88, -12, 46, -55, 56, 14, -44, 0, -67, 9, 13, 37, 22, -63, 68, -48, 35, -57, -19, -1, 11, 71, 64, -21, 34, 52, -35, -56, -34, 14, 39, 20, -6, 1, -34, 8, 49, 24, 50, 14, 73, -59, -13, -36, 45, 77, 45, 18, -58, 10, 45, 38, 22, 59, 28, 42, 66, -53, -64, -10, -55, 65, -22, 55, -15, -62, 28, -65, 1, -51, -39, -78, -33, -38, -5, 
  34, 33, 5, -52, 24, -7, 56, -44, -24, -16, -78, -51, -16, -8, 46, 0, 73, -49, -3, -25, -9, 3, 54, -71, -31, 73, 33, -38, 18, -83, 38, 78, -9, 57, -70, 50, 3, 63, -5, -24, 22, -57, -22, 38, -28, -66, 40, -80, -49, 64, 55, -21, -44, 49, 11, 1, 33, -64, 37, 24, -1, 29, -25, 8, 4, -19, 49, 68, 50, -39, 6, 63, 55, -30, -52, 23, -59, 11, 75, -83, -57, 57, -39, 59, 71, 12, -8, 36, -44, -41, -37, 7, -12, -53, 79, 31, 15, -6, -22, 48, 66, -19, 
  -33, -29, 36, 31, 28, 0, -73, -52, -20, -78, -7, 53, -68, 60, 41, 33, -48, 68, 29, 56, -11, -35, -10, -22, -28, -50, -62, -4, -28, -41, -56, 51, -75, 2, -63, 59, -63, -8, -48, 47, -34, 5, -30, -63, 50, -42, -33, -21, 63, -53, -55, -28, -22, -69, -62, -12, -78, 6, -28, 8, -3, 0, 24, 71, 59, -10, -20, 14, 30, 41, -69, 35, -16, -73, 24, -37, 65, 41, 41, -72, -77, -41, -26, -35, -13, -65, -2, 33, 15, -74, 11, -47, 67, -61, -71, -29, 25, -27, -12, 69, 6, 41, 
  50, 55, 39, 37, 7, 76, 40, -57, -100, 10, 58, -3, 8, -12, 43, -54, -27, 39, -86, -60, 25, 27, 49, -33, -24, -70, 34, -8, -8, -39, 37, 85, -48, -40, -20, 24, 73, 59, 79, -47, 29, 5, -35, 48, -1, -51, 14, -35, 0, 52, -33, 24, -56, 1, -24, -37, -10, 5, 30, -20, -4, 15, 10, 39, 10, -59, -60, 16, -35, -21, -12, 14, 27, -11, -27, -53, -14, 42, 109, -21, 53, 17, 80, -7, 96, 10, 25, -39, 26, -56, -57, 2, 89, -19, 15, -11, -43, 35, -74, -56, 94, 26, 
  -59, 16, -18, -17, -1, 20, -77, -9, 59, 36, 4, 20, -7, 28, -37, -28, 41, -91, -52, -38, 32, 15, 0, -4, -54, 8, -67, -87, -53, -16, 44, -48, 52, -37, 65, -33, -6, -7, 42, -5, 71, 1, 32, -61, 27, -13, -44, -23, -21, -19, -65, 20, -29, -3, -26, 79, 67, -40, 33, 31, 52, -46, 48, -5, -45, 60, -11, -38, -42, -50, -67, 69, 28, 24, -9, -65, 12, -6, 50, 25, -48, 64, 8, 63, -40, 9, 73, -55, -28, 7, 27, 36, 44, -66, 37, -92, -3, 1, -3, -9, 27, -12, 
  14, 34, 37, -32, -7, 43, 61, 69, 60, -28, -27, 52, -55, -53, -8, -37, 83, -2, 46, 79, -35, 6, -13, -2, -47, 43, -85, 63, -9, -65, 69, -80, 59, -28, -74, -59, 39, 17, -3, -74, 13, -8, 19, 43, 47, -42, 47, 71, 9, -45, 58, 48, 21, -13, -40, 0, -77, 57, 31, 30, 30, 15, 31, -28, -67, 67, -61, -46, -64, 5, 44, 37, 68, -72, -19, 21, 65, -78, -35, 3, -63, -25, -86, 39, 0, -45, -37, -5, -46, -66, 28, -57, 79, -8, 41, -37, 58, 13, 52, -9, -20, 39, 
  1, -59, 0, -38, 51, 24, 56, 41, 25, -58, 43, 39, 81, -65, -41, -60, 37, -26, -67, 33, 20, -9, 29, 46, 15, 8, -30, 29, 32, 50, 57, 77, -80, -23, 79, 20, -37, -19, -29, -61, -11, -54, 66, -47, 1, -13, 70, -1, -35, 10, -57, 57, -56, -70, -3, -48, -42, 44, 33, -13, -55, -26, 48, 23, 53, 43, 85, 7, 11, 51, 74, 32, 9, -52, -74, 61, -45, 6, 34, 46, -27, 50, -9, -44, -35, -5, 10, 5, -63, 1, 37, -51, -28, -37, 31, 49, -22, -44, 63, 68, -25, 2, 
  -7, -61, 48, -77, 16, 38, 84, 53, 1, -69, 39, -24, -8, 37, -74, -19, 52, -54, 9, 33, -62, -62, -28, 18, 16, -14, -4, 110, -6, 58, -43, 17, 22, -58, 23, 57, -53, -43, -86, 62, 31, 7, 1, -36, 58, 34, 39, -9, -72, 46, -10, 44, 27, -27, 42, -46, 45, -31, 64, -50, -81, 68, 39, -21, 63, -60, -7, 46, 24, -38, 14, -66, -18, 4, 51, 13, 38, 7, -17, 42, 18, -45, -26, 58, -60, -28, -17, 38, -40, -20, 82, 70, -33, -66, -3, 46, 13, -9, 14, 32, 2, -48, 
  -65, -35, -2, -65, 61, -36, -35, 36, -10, -29, -68, 25, -76, -37, -49, -60, -10, -9, 66, -27, 54, 29, 17, 35, 16, 26, 56, -8, 71, 26, -38, -76, 22, -46, -19, -44, -40, 16, -81, -56, 39, 32, 13, 33, -26, -5, 73, 50, -61, 26, -35, -21, 31, -65, -8, 22, -72, 24, -2, 18, 59, 58, -4, -41, -25, -74, 44, 49, 47, 30, 18, 6, 34, 24, -63, -42, 68, -32, -82, -21, -9, -50, 51, 65, -16, -32, -53, -1, 63, -8, 39, 43, 65, -14, 67, 25, 8, -50, 21, 73, -39, 64, 
  23, -70, 43, -4, -29, -81, 7, 35, 37, 11, -23, 50, -24, -14, 124, 63, 49, -1, -50, -86, -40, 26, 19, -39, -92, 3, 23, -69, -58, 36, -60, -14, -74, -63, 44, 69, 47, -11, 26, 11, -77, -65, 0, -3, 22, 0, 16, 16, -46, -12, -21, -65, -13, -44, -89, 62, 1, -10, -32, -17, 58, 17, 37, 72, -22, -70, -26, -1, 32, 12, -34, -44, 25, 42, -3, -96, -53, 2, 30, -27, -38, 17, 44, 15, -50, 31, 27, 60, -64, -55, 34, 40, -106, -47, 93, -55, 11, 16, 21, 82, -49, -2, 
  83, -56, 65, -25, -70, -14, 42, 39, 74, 39, -65, -90, -10, 28, -69, -20, -58, 37, 53, 60, 38, -38, 63, -54, 11, 27, -40, 49, 94, 89, -15, -40, -54, 56, 40, -67, -3, 53, -19, -34, 50, 0, 45, -35, -40, 14, -88, 37, -38, 16, -44, 58, -9, 79, 51, 47, 3, -56, -10, -43, 23, -32, 29, -95, 37, -67, 3, -7, -37, -67, -62, -52, 77, -3, -66, -69, -41, -4, -71, -51, 18, 54, -54, -73, -45, 47, 55, 7, -19, 49, 12, -34, 8, -38, -75, -17, -48, 42, 58, -1, -47, 6, 
  -73, -69, -64, 47, 4, 18, 38, -32, -14, -18, -16, 41, -62, -70, -14, 28, -65, 33, -1, -12, 52, -9, 56, 24, 41, -84, -38, 60, -52, -59, 32, -56, 10, -15, -14, 38, 39, -21, -44, 35, 44, -53, -9, -52, -13, -42, -76, -16, -34, 43, 62, -79, 54, -64, 6, -70, -21, 54, -14, 17, -28, 51, -50, 21, -75, 83, 16, 54, 5, -80, -67, -17, 12, 41, -5, 84, -19, -32, -23, -4, 56, -48, 38, 17, -36, 36, 58, -6, -44, -65, 67, 51, -14, 46, -3, 19, 17, 21, -46, 37, 60, -29, 
  4, 49, -35, 83, 68, -31, -28, 12, 8, 79, 78, 85, 89, 59, 74, -31, 33, 44, 2, -78, -19, 81, 4, -75, -52, 2, -2, -64, -77, 39, -52, -38, -54, 13, 49, 32, -12, -21, 96, 11, -39, -77, 89, -40, -40, 81, -22, 2, 25, -34, -68, 2, -1, -18, 68, 55, -65, -33, -44, 27, 7, -13, -59, -12, 65, -2, 119, -25, 38, 12, 22, 23, -90, -70, 85, -64, -14, -49, 77, -6, -44, 25, -18, 96, -30, -19, -2, 29, 2, -42, -19, 4, -41, -27, 21, 12, 65, 24, 27, 23, -26, -12, 
  -76, 25, 17, -56, -10, 17, 39, 26, 17, 40, -52, -10, -20, 36, -27, 48, 5, -38, -46, -24, -46, -87, 57, 52, 30, -3, -40, 103, -61, 22, 58, 43, 2, -2, -11, -34, 61, 41, 30, 15, 2, 42, -34, 28, 66, -1, -76, 70, 30, 10, 17, 46, -54, -53, 55, -4, 39, -64, -57, -69, 36, 3, -57, -24, 2, -5, -35, 6, 24, -37, 15, 34, 39, 82, 39, -19, -34, 16, -98, -31, 37, 16, -36, -44, 44, -22, 70, 68, 40, -61, -28, -26, -58, -68, 14, -7, 17, 36, -43, -43, -92, 49, 
  -17, 9, 10, 35, -28, 31, 43, 49, 97, 29, -66, 14, 49, -79, -57, -19, 83, 11, 81, 46, 82, 31, 63, -9, -33, -52, 5, -15, -25, -85, -36, 61, -42, 18, 34, -64, 76, -67, -46, -33, 16, -56, 89, -14, 4, 71, -31, -48, -22, 47, -46, -56, 66, 67, -16, 26, -47, 9, 95, 57, -1, -24, -43, -24, -36, 59, 7, 9, 46, 45, 80, 75, 20, 13, -21, 57, -25, 3, -5, -16, -51, 16, -14, 53, -33, -26, 57, 23, 69, 46, -44, -20, -63, -9, 30, 44, 43, 39, -38, -46, 17, -49, 
  7, 84, 17, -36, -32, -69, -39, 14, -81, -56, -22, 39, -16, -11, 56, -55, -46, -15, 50, -70, 41, -33, -34, 44, 11, 5, 50, -9, 57, -60, -41, 29, -12, 31, 26, 70, -24, -47, -28, 25, -53, -65, 66, -3, 65, 39, 50, 16, -70, 12, -51, -70, 5, 10, 54, -28, 70, -64, 35, 42, 12, 44, -47, 21, 77, 61, 46, 89, 71, -62, -20, -36, 48, 64, 18, 26, 50, -9, 1, 41, -33, 54, -71, -50, 37, -51, -67, -54, -58, -3, 81, -49, -17, 61, 88, -29, 51, 9, 58, -25, -41, 102, 
  74, -14, -53, -89, 22, -37, -13, 5, -30, -65, 14, 41, -40, 54, -63, 21, 119, -29, -52, -87, 56, 37, -68, 56, 22, -81, 38, -30, 54, 55, 44, 36, -26, -55, 7, -29, -7, -38, 21, -23, 43, -6, -32, 4, -5, 96, 44, -64, 45, -99, -17, -53, -9, 31, 71, 12, -39, 56, -36, -55, 28, -4, -41, 47, 43, 103, 44, -58, 41, -18, 52, 47, -73, -22, 19, 16, 14, -38, -77, -76, -65, 4, -93, 4, 14, 68, 7, 2, -9, 3, 61, -29, -63, 28, -36, 45, -5, 91, -16, 23, 3, 24, 
  43, 70, -16, 25, -44, -60, 4, -87, 14, -10, 11, -64, -1, 50, -16, -73, -3, -53, 41, -4, 30, -67, -46, 23, 36, -17, 25, -22, 41, 37, 43, 17, -72, 7, 78, 31, 10, 69, -62, 10, -55, 9, 36, -12, -26, -12, -7, 78, 22, -61, -44, -62, 42, 63, 9, -63, -53, -69, 6, 23, -51, -37, 76, -31, -20, 19, 31, 49, 30, 28, -33, 37, 64, -57, -38, 46, 27, 40, 10, 16, 30, -32, 49, 32, -37, -7, -17, -1, -33, 51, 40, 6, -15, 63, 25, -25, 41, -64, 36, 45, 37, -42, 
  8, 15, 44, 8, 27, -25, 14, 2, 27, -98, 67, 47, -10, -47, 13, 34, -41, -26, -42, 3, -21, 52, 41, -82, -8, 22, 80, -50, -40, -64, 73, 30, -75, 33, 8, -48, -34, 54, 2, 18, -65, 9, -39, 2, 46, 6, -50, 81, 32, 31, -29, 63, -1, -26, -88, -36, 60, 25, -24, -16, -62, 31, -17, 59, -42, 34, -1, 23, -52, 31, 55, -31, -33, -31, -13, 47, -59, 59, -6, 78, -52, -54, 45, 64, -32, 1, 19, 54, 10, -4, 54, 44, 45, -30, -40, 67, -66, 35, 52, -70, -62, -43, 
  -50, -40, 37, -28, 48, -2, -2, -78, -71, -18, -51, 53, -41, -2, 37, 9, 2, 91, -44, 72, -87, 41, 32, 61, 33, -7, 54, 0, 64, 35, 68, 2, 5, 9, -33, -38, -1, 3, 59, -32, 13, 47, 51, -4, -46, -38, -68, -16, -3, -13, 21, 56, 85, -36, -26, 53, 80, -46, -64, -5, -9, -40, 73, 9, 45, -61, 49, 40, -47, 26, -46, 22, 10, 61, 1, 100, -46, -55, -1, -72, -60, -55, -42, -14, 24, -30, 16, -28, -14, -3, 54, 29, -10, -42, 47, -32, -17, -10, 80, 46, -1, 69, 
  51, 42, -32, 87, -24, -7, -21, -91, 16, 52, 31, -10, -9, -8, -76, -52, 17, 21, -16, 94, 56, -16, 0, 70, 100, 5, 29, -30, 76, -33, -36, 24, -62, -48, -61, -51, 64, -7, -18, -63, 90, 47, -18, 4, -22, 27, 69, 96, 64, 63, -42, 52, 7, 41, -42, -1, 26, 31, -41, 45, 90, -71, -5, -37, 69, 44, -55, 40, 8, 24, 0, 60, 49, -47, 34, 51, -33, 51, 15, -64, -8, -28, -43, 7, -66, -67, -56, 16, 15, -37, 11, 57, -16, -70, 62, -25, 13, 48, -47, -39, -18, -19, 
  90, 28, 19, 62, 35, 40, 5, -33, -1, 29, -32, 0, 41, -49, 64, 33, -21, -84, -17, 43, -58, -84, -32, -10, -40, -39, -29, -68, -69, -22, -38, 55, 51, 51, -59, 45, -9, 33, -37, -39, -46, 13, -7, -45, -55, -46, -55, -8, 46, -71, -50, -69, -40, -66, 0, -27, -8, -33, 73, -60, 36, -60, 65, 42, -1, -79, -15, -38, 33, -39, 26, 51, -15, 39, -4, 39, 74, -42, -55, -73, -9, -18, 47, -53, 42, 40, -78, 25, 17, 16, -58, 50, -39, -39, -7, -54, -38, 26, 50, 15, 55, -19, 
  39, -37, -66, 3, 51, -29, 35, 80, 59, -63, -72, -69, -27, -58, -31, -27, 58, 14, -40, 36, -11, 65, 18, 16, 14, 42, 28, 51, -54, -52, 2, 55, 53, 53, 55, -75, -39, 29, 10, 51, 29, -16, 48, 0, -16, -8, 50, 30, -50, 1, 13, -17, 66, -62, -65, 12, -15, 52, 82, 20, -69, -19, -45, 61, -64, -6, 16, -18, -25, 63, -5, -78, 41, -76, 47, -11, 56, 15, -17, -19, -16, 77, -78, -9, 36, -52, 92, -31, -3, -48, -59, -19, 38, 52, 54, 75, 11, -31, -58, -24, 85, -31, 
  -6, 37, 31, -65, 1, -66, -30, -70, 36, 53, -13, 19, 27, 47, 39, -21, 15, -29, -73, -30, 10, -46, 30, -59, -80, -52, -80, 37, -57, 3, -74, -3, 12, 50, 13, 4, 27, 46, -60, 46, -24, -19, -75, -4, -32, 27, 22, -20, -4, 5, -25, -45, 55, -52, 60, -29, -20, 13, 37, 30, 20, 23, 4, 25, -12, 63, -47, -51, 1, 66, 10, -54, 41, 4, -42, 40, 54, -67, -22, 39, -20, -58, -51, -40, -30, 60, 21, 52, -55, -77, -14, 33, -25, -25, -17, 27, -49, -82, 39, 26, 32, -3, 
  79, -51, -25, -7, 2, 28, -51, -18, -69, 66, 78, 12, -41, -23, -35, 8, -15, -60, 26, 28, -36, 61, 7, -5, 74, -5, 9, -51, 34, -46, -31, -88, 0, -19, 34, -78, -10, -35, -48, -43, 16, 2, -63, 57, -9, -9, -74, 16, -46, 37, 12, 26, -36, -9, 30, 51, 44, 57, 8, 35, 80, -56, -22, -12, -38, -78, -15, 28, 29, -52, 17, 76, 18, 3, 44, -61, -73, -6, 10, -25, 46, 51, -49, 19, 1, -37, -42, 17, -45, 91, 26, -32, -2, 49, -38, -110, -42, -48, 3, 7, 7, 67, 
  59, -8, -19, -80, -38, -51, -1, -30, 62, -2, 81, -27, 37, 22, -56, 49, -42, 28, -45, 37, 68, 93, 22, -13, -53, 40, -43, -79, -24, -61, 9, 52, -1, 45, -55, 27, 17, -21, 7, 3, -37, 48, -23, 91, -32, 40, -59, -11, -21, 3, 20, -39, -5, 65, 50, -8, 51, -34, 70, -19, -22, 18, 41, 48, 54, 88, -10, 74, 44, 63, 3, -76, -9, -61, 68, -89, -32, -32, 18, 65, -23, -39, -50, -13, 0, -44, 53, 56, -51, -53, -26, 6, 126, 52, -64, 3, 70, -59, -85, 21, -14, -54, 
  45, -32, -64, -39, 44, -26, 35, 43, -43, 52, -54, 68, -35, -52, 7, 21, -33, 31, 29, 9, 44, -73, 63, 27, 4, -5, 71, 48, -44, -12, -47, 30, 39, -23, -57, 19, -55, -42, 38, -7, -23, -62, -40, -70, -27, 23, -31, -66, 3, 68, 33, -20, -49, -19, -65, -41, -61, -7, -69, 4, -77, -12, -14, -26, 58, -71, 26, -33, -62, -58, -38, 2, -31, 37, -61, 34, -23, -14, 34, 2, 6, 32, -52, 63, -1, -3, -22, -76, 49, 9, -38, 52, -16, 36, 6, -43, -33, 61, 16, 12, -28, -68, 
  -6, 56, -15, 33, 47, 56, 41, 46, 68, -53, -16, 5, 34, -55, 35, -66, 50, 12, 13, 25, 31, -63, -54, -70, -11, 60, -18, -32, 39, -55, 7, 14, 51, 30, -29, 25, -38, -6, -73, 4, 16, 32, -26, -56, 25, -72, -22, 7, -39, 46, 16, 6, -54, 22, 3, -82, -6, -3, 67, 56, 38, 20, -60, -5, -17, 86, -69, 16, -89, -23, 45, -60, -92, 28, -5, -66, 26, 37, -45, -15, 31, 14, 13, -15, -58, 2, 45, -37, 31, 7, -36, -23, 7, 5, 32, -46, 1, 25, -14, -3, -80, 31, 
  38, 11, 62, -31, 40, -20, 37, -102, -3, 10, -47, -96, 28, 48, 14, -87, -41, -1, 25, -63, -50, -39, 42, -57, -33, 59, 13, -22, 2, 13, 11, 40, -9, 44, 22, 88, -60, -18, -11, 10, 19, 10, -16, 52, 32, 15, -70, -7, -76, 17, -26, 44, 37, -21, -12, 3, -18, -66, 51, -72, -24, 29, -10, -75, 37, -25, -49, 26, 5, -53, -76, -64, -17, 83, 43, 53, 33, -39, 39, -37, -27, 32, -13, -79, -17, 12, 15, 82, 23, 13, 1, -23, -51, -43, 67, 54, 60, 30, 49, 7, 30, -4, 
  -36, 2, -10, 45, -29, 51, -29, -62, -62, -64, 62, 86, -34, -25, -10, -4, -5, -15, -27, -70, 30, -14, 41, -53, 22, 60, 45, -33, -86, -6, 9, -44, -91, 28, 35, 61, 34, -42, 63, -59, -33, 4, -34, 86, -11, -60, -37, 43, 28, 21, 18, 78, 2, 18, -18, 78, -58, 68, -58, 30, -21, 10, -59, -11, 49, -89, -55, -8, 32, -54, 33, 35, -72, 55, -36, 27, -55, 69, 5, -20, 33, 52, 103, -47, -35, -11, 31, 32, 89, -34, -6, 19, 7, 74, 63, 14, -48, 21, -15, 34, 24, 39, 
  28, -32, 93, 52, -63, 55, 35, -2, 45, 60, -45, 3, 7, -17, -65, 68, 49, -2, -56, 38, -47, -3, -54, 67, 12, -3, -98, -27, 61, -43, 9, 20, 0, 36, -36, -26, -12, -55, -48, -9, -33, 53, -25, 46, -16, 58, 5, -38, -75, 59, 38, 26, -69, 28, 95, -21, -60, 21, -92, -62, 43, 15, -40, -51, 3, -54, -66, 22, 18, 29, 51, -76, 6, -19, 51, -50, 20, 68, 49, 21, 12, 29, -39, -55, -26, 29, -27, 34, 53, 12, -86, 15, -24, -73, -68, 41, -23, 37, -29, 16, 0, -17, 
  59, 13, 2, -52, 0, 13, -19, 51, 75, -75, -60, -40, 72, 32, -27, 58, -32, -54, 67, 54, 44, -28, 20, -31, 26, -48, -45, 6, -27, -49, -74, -69, -30, 32, 74, 27, -33, -32, -66, 42, -3, -56, -14, -29, 49, -44, -17, -63, 30, -25, 21, 43, 36, -43, 38, 16, -1, 67, -58, -21, -87, 16, -64, 43, 26, -49, -72, 6, -36, -2, 29, -3, -22, 9, 39, 58, 63, 63, -13, 1, -65, -5, -13, 46, -84, 9, 55, 35, -51, 67, 42, -9, -43, 74, -50, -12, -35, -65, -45, 37, 32, -55, 
  -41, -67, -56, 61, 40, 31, 11, -14, 15, -45, 48, 65, 14, -60, -41, 56, 29, -13, -61, 27, 1, 33, 43, -65, 44, 37, 9, -66, 15, -48, -22, 62, -8, -77, 41, 98, 75, 5, -46, -59, -30, 13, 36, 68, -39, -54, 12, -49, 21, -20, -50, -19, -24, 65, 17, 57, -44, 16, -9, 9, 60, -34, 45, 85, 70, 20, -17, 55, -14, 20, 31, 2, -62, -24, -76, 14, 47, 95, 118, 7, -25, -56, 65, 79, 25, -41, -81, 51, -53, -49, 52, -19, 65, 89, 3, 101, 3, -18, -7, -13, -3, 32, 
  28, 32, 33, 53, -28, 24, 21, 28, -15, 10, -10, -33, 32, 65, 67, -72, -2, 87, -42, 2, 12, -1, 21, -52, 38, 47, 15, -9, 22, -35, -11, 28, -11, -36, -4, 72, 74, 52, -35, 50, -94, 44, 88, -11, -61, -80, -17, 31, -25, 30, 56, -80, 49, 48, 54, -24, 18, -34, -47, -8, 3, 45, 75, 3, 25, -103, 24, 19, 51, 33, 21, -77, 42, 13, -8, -58, -69, -48, 95, 18, 31, 28, 93, -29, -40, -37, -58, -44, 37, -50, -72, -17, -51, 13, 73, 56, 56, 72, -24, -51, 97, 6, 
  -17, -79, -8, -28, 48, 55, 7, 42, 16, 38, 91, -5, 12, -19, 67, -38, -81, -10, -60, -22, 12, 9, 40, -5, -4, 70, 61, 22, -19, -48, -53, -28, -39, 3, 19, 14, -14, -33, 27, 70, 31, -41, 44, 63, -29, -7, 49, -12, -40, -78, -71, 34, -8, -24, -93, 22, -39, 51, -32, 59, 27, 11, 6, -38, 25, 31, 77, -44, -14, 61, -15, 4, 19, 26, 25, 31, -9, -22, 42, 1, -71, -36, 86, 33, 68, -33, 44, -11, -27, -9, -21, -31, 0, 19, -28, -13, -63, -69, 15, -30, -7, 90, 
  11, -43, 16, -12, -4, -12, 27, 50, -22, -45, -48, -24, 8, 24, 38, 37, -66, -83, -11, 55, 12, 41, -52, -60, -28, 51, 59, 13, -70, 44, -51, 24, -69, 40, 25, -33, -24, 56, 70, -51, -33, 11, 77, -10, 28, -35, -8, -23, -68, 6, 42, 38, 49, 25, -64, 61, 72, -21, -21, 52, 53, 8, 21, -53, 58, -68, 2, -55, -76, -84, -59, -2, 48, 13, -34, -66, -60, -31, 44, 3, -76, -62, 40, -6, 56, -23, -61, -17, 42, 54, 66, 9, 21, 59, 12, -51, 57, -18, -68, 71, 8, 18, 
  -8, -4, -60, -62, -25, -73, -73, 64, -5, 15, 49, 70, 7, -67, 4, -72, -58, -62, -60, 19, -49, -13, -28, -17, 5, -24, -28, 39, -69, -46, 40, 29, -7, -53, -64, -41, 23, -31, -73, -26, -65, -26, 57, 51, 4, -60, -72, 39, 1, -51, -2, 73, -28, -32, 6, 42, 7, 0, -32, 75, 74, -12, -14, -5, -54, -54, 32, 43, -74, 63, -58, -23, 51, -7, -63, -68, -60, -64, 71, 59, -2, -6, -55, -41, -72, 29, -51, 4, 59, 55, -72, -16, 69, -67, -29, 68, 0, -2, 49, -22, -67, 41, 
  -32, -44, 56, 22, -49, -81, 49, 12, -62, 37, -64, -45, -69, 64, -19, 1, -35, 25, 71, -8, -37, 6, -4, -53, 59, -13, 22, -32, -22, 61, -5, 15, -44, 4, 50, -57, 56, 30, -51, 51, 3, -22, 19, 62, 69, 10, 72, 6, 2, -92, 49, 59, -15, -40, -74, 20, -17, -54, -57, 32, 25, 7, -50, 42, -40, 49, -63, 14, -60, 39, -73, -13, -43, -70, 51, -85, -31, -34, 47, -75, -13, 69, 15, 6, -12, 4, -28, 2, -58, 70, 9, -3, 24, -4, 36, -52, 29, 24, 75, -19, 14, -10, 
  -32, 6, 66, -6, -61, 75, -2, -55, -5, -12, -67, -38, 47, -20, 10, 31, -52, -46, -36, -37, -58, -1, -4, -68, -3, 29, -38, -34, 54, -27, 12, 41, 20, 47, 63, -60, 25, -44, 49, -81, 31, 43, 48, -19, -36, 61, -52, 94, -13, -78, 18, -18, -17, -55, 40, -80, -31, 20, 71, -22, -11, -2, 40, 29, 48, -18, -40, -78, -5, 67, -55, 7, -53, 61, -29, -40, -65, -24, 12, -16, 26, 47, -95, -53, 50, -79, 67, 59, 46, -32, 49, 35, -29, -10, 52, -63, -26, -74, 30, 77, -82, 73, 
  -88, -4, -24, 49, -72, 34, 95, -29, -32, 53, 13, 54, -48, -66, 27, -48, 52, -77, 16, 36, 72, 58, 37, -55, -102, -65, 40, -38, -11, -55, -27, 42, 20, -30, -42, 62, 24, -47, 37, -27, 83, 32, -88, -48, 51, -27, 56, 39, -64, -25, 22, -2, 62, 50, -37, 1, 35, 52, 0, -67, -56, 6, 60, -60, -21, 53, -47, 3, 66, 43, 23, -6, 37, 36, -30, 88, 6, 44, 51, 36, 43, -50, -51, 73, -75, -1, 56, -59, 49, -34, 34, 9, -43, 51, -50, -3, 51, -23, -4, 46, -45, -6, 
  21, -49, -31, -79, 50, 33, -83, -39, -24, 30, 21, 27, 34, -42, -58, 52, 28, 70, 18, 64, -68, 30, 22, 18, 10, -39, -43, 36, 4, -4, 29, -44, -58, -22, -45, 11, 1, 11, -2, 24, -21, -69, 49, 24, -2, 9, 29, 25, 68, 19, -38, -20, -1, -44, 41, 39, -84, 49, 37, 33, -1, -5, 44, 9, -9, -96, -37, 44, 33, -18, 33, 33, 4, 30, -63, 25, -10, -70, 1, 21, 9, -65, 74, -25, -3, 6, -1, 48, 28, 0, 9, -22, -55, -48, 30, -20, 13, -39, -66, 18, 62, -76, 
  -19, 63, -15, -4, 54, -71, 1, -1, -34, -20, 23, -88, 35, 11, 43, -68, 82, -52, 53, -38, 64, -74, 25, 64, -69, -13, 24, -2, 68, 5, 32, -47, -28, 0, -11, 40, -49, 28, -4, -2, 47, 51, 4, 0, -52, 43, -7, -73, -17, -6, 11, -41, -2, -72, -68, 24, -80, 55, -8, 51, 26, -83, -26, 5, -76, 1, 21, -25, 70, -3, -26, -21, -38, 21, -66, 39, 48, -50, 3, 43, -35, 47, 47, 52, -16, 52, 61, 53, -72, 21, -40, -78, -17, -49, -46, -67, 42, -50, -37, 16, -50, 59, 
  -55, -46, 26, 76, 63, 57, -22, -69, 63, -28, 58, 30, -70, -43, -29, 32, 27, -81, 50, 13, 3, -30, -31, -47, -64, -74, -47, 22, -5, -25, -14, 20, -28, -50, 1, -18, -51, 16, 66, 39, -12, -65, 54, -32, -18, 30, -80, 31, -18, -12, 35, 13, -7, -50, 127, 28, -72, 20, -40, -6, 37, 30, 81, 44, -25, 100, -2, 5, 33, 0, -22, 76, 16, 38, -53, 19, -18, 41, 13, 28, 25, 62, 22, -41, -1, -47, 13, -76, -86, -30, 24, -35, -75, 3, -28, -1, 29, 103, -23, -2, 43, 41, 
  -5, 41, 3, 57, 11, -37, 54, 44, -23, 55, -50, -49, 28, -13, 99, -45, -13, -99, 24, -5, -32, -2, -69, 44, -35, 33, 57, -94, -81, -93, -81, 78, -43, -54, 47, 38, -17, -50, 42, -54, -45, 34, -8, -51, 16, 36, 93, 39, 82, 56, 15, -24, -51, 25, 27, -33, -40, -87, -80, 36, 62, 30, 24, 7, 46, 36, 59, 26, 13, 30, -59, 50, -67, 3, -26, -14, -5, 15, 53, -27, 24, -38, -25, 25, 43, 60, -3, -30, -103, 0, 21, 0, 6, 22, 67, -20, -57, -1, 61, 30, -59, 66, 
  4, -71, -32, 12, 22, -18, 22, 22, -12, -23, -2, -59, -78, -33, -34, -3, -105, -44, -50, -31, 33, 19, 3, 23, 52, -11, -35, 48, 26, 35, 58, -20, 5, -47, 25, 18, 48, 30, -11, 39, 38, -26, 13, 2, -55, 48, -9, -5, 47, -13, 42, -44, -22, 28, -36, 20, 70, -48, -64, 29, 39, -56, -44, -17, 27, -31, 33, -73, 38, -70, 50, -44, 8, 43, -59, 25, -71, 17, 67, -54, 19, -44, -56, 16, -4, -1, -61, 66, 11, 47, 68, 14, 22, 40, 63, -8, 63, -37, -31, 21, -53, -52, 
  -5, -62, -72, -95, 0, 9, -11, -4, 63, 37, -6, 58, 58, 7, -75, -12, -37, 88, -41, -59, 44, 54, -3, 59, -12, 25, 10, 6, 48, 49, 63, 21, 23, 32, 3, -42, -3, -26, -8, -7, 75, 18, -7, 66, -49, 59, 0, -10, 7, -38, -22, -26, 9, 3, 35, -6, -57, 32, 47, -54, -24, -27, -51, 54, -68, 69, 30, 88, 16, -38, 29, -96, -55, -16, 80, 37, 47, -60, -71, 72, 44, 86, 25, 48, 29, -50, 68, -6, -60, 39, -6, -39, -4, 2, 43, 49, -59, -79, -34, 23, 21, -9, 
};
const TfArray<2, int> tensor_dimension6 = { 2, { 64,102 } };
const TfArray<1, float> quant6_scale = { 1, { 0.002534280763939023, } };
const TfArray<1, int> quant6_zero = { 1, { 0 } };
const TfLiteAffineQuantization quant6 = { (TfLiteFloatArray*)&quant6_scale, (TfLiteIntArray*)&quant6_zero, 0 };
const ALIGN(16) int32_t tensor_data7[102] = { -7756, -924, 23295, 20919, 14516, 9992, 18175, -5182, 19805, -8309, 7851, -1431, -1690, 7692, 6170, 13787, -7160, 9746, 8656, 24881, 11521, 10883, -1339, 11132, -11448, 11320, 9944, 15879, 25970, 6780, 14783, -5136, 15725, 33226, 21683, -6096, 18551, 4183, 3443, 2001, 17944, 4064, -3951, 12143, -425, -17188, 12796, 19662, 4568, 35610, 11238, 1665, 15293, -25755, 14914, -3742, 9888, 15621, 6046, 11356, 3484, 10827, 26772, 19112, 12866, 6321, 294, 7215, 14621, -8834, 20191, -1883, 13658, -13559, -9951, 25104, 20614, 22646, 24286, 22026, 7092, -13650, -3651, -1002, 6517, 28140, 15567, 700, 42091, -6726, -9955, 12734, -1537, 16857, 19024, 12489, -14276, 12442, 3785, 4027, 15830, 15239, };
const TfArray<1, int> tensor_dimension7 = { 1, { 102 } };
const TfArray<102, float> quant7_scale = { 102, { 0.00025007649674080312, 0.0001930535800056532, 0.00022477707534562796, 0.0002033647324424237, 0.00029421973158605397, 0.0002176290872739628, 0.00025489754625596106, 0.00017793415463529527, 0.00017733676941134036, 0.00019247464661020786, 0.00024607617524452507, 0.00029585172887891531, 0.00022912608983460814, 0.00025630620075389743, 0.00020887967548333108, 0.00023121453705243766, 0.00019634970522020012, 0.00028763647424057126, 0.0002271348494105041, 0.00017864431720227003, 0.00019492584397085011, 0.00024976592976599932, 0.00024156650761142373, 0.00033552778768353164, 0.00020701128232758492, 0.00018670667486730963, 0.00027474042144604027, 0.00026543257990851998, 0.0002074867079500109, 0.00019565921684261411, 0.00023150736524257809, 0.00028994205058552325, 0.00029681227169930935, 0.00025384305627085268, 0.00030008589965291321, 0.0002061590930679813, 0.00025056590675376356, 0.00018793165509123355, 0.00020808640692848712, 0.00021669361740350723, 0.00023252669780049473, 0.00019212139886803925, 0.00026202484150417149, 0.00024460037820972502, 0.00016663390852045268, 0.00019967257685493678, 0.00020088609016966075, 0.00026966538280248642, 0.00025771887158043683, 0.00032330513931810856, 0.00024212704738602042, 0.00031085635419003665, 0.00022964458912611008, 0.00017355169984512031, 0.00034339426201768219, 0.00025228515733033419, 0.00036833222839049995, 0.00020646878692787141, 0.00032230629585683346, 0.0002323601656826213, 0.00021755303896497935, 0.00029581814305856824, 0.00019770559447351843, 0.00020221047452650964, 0.0002656176220625639, 0.00022429796808864921, 0.00022010720567777753, 0.00025754162925295532, 0.00024966069031506777, 0.00016901467461138964, 0.00026546881417743862, 0.00021635736629832536, 0.00031271274201571941, 0.00017955055227503181, 0.0002401776728220284, 0.00019738341507036239, 0.00022987004194874316, 0.00018961478781420738, 0.0002750003186520189, 0.00027085468173027039, 0.00027925774338655174, 0.00017662058235146105, 0.00027265676180832088, 0.0002697126183193177, 0.0002919012913480401, 0.0002102602447848767, 0.00022118602646514773, 0.00024023147125262767, 0.00021270230354275554, 0.00021994335111230612, 0.0002502875286154449, 0.0002566313196439296, 0.00027759515796788037, 0.00026184885064139962, 0.00028382093296386302, 0.00036164894117973745, 0.00024088296049740165, 0.00025789628853090107, 0.00029407464899122715, 0.00027223277720622718, 0.00021127332001924515, 0.00025750690838322043, } };
const TfArray<102, int> quant7_zero = { 102, { 0,0,0,0,0,0,0,0,0,0,0,0,0,0,0,0,0,0,0,0,0,0,0,0,0,0,0,0,0,0,0,0,0,0,0,0,0,0,0,0,0,0,0,0,0,0,0,0,0,0,0,0,0,0,0,0,0,0,0,0,0,0,0,0,0,0,0,0,0,0,0,0,0,0,0,0,0,0,0,0,0,0,0,0,0,0,0,0,0,0,0,0,0,0,0,0,0,0,0,0,0,0 } };
const TfLiteAffineQuantization quant7 = { (TfLiteFloatArray*)&quant7_scale, (TfLiteIntArray*)&quant7_zero, 0 };
const ALIGN(16) int8_t tensor_data8[102*1*1*102] = { 
  /* [0][0][][] */ 3,-10,1,27,22,-3,6,52,53,23,10,29,127,77,5,58,41,-22,-6,33,4,57,26,-26,45,12,13,-7,62,-28,-16,-14,7,-59,-63,-17,5,-41,-39,15,-14,-25,22,-15,58,-8,18,-25,4,-27,-68,-6,29,18,-19,19,-34,74,22,-4,26,24,-3,14,33,-35,-36,-17,12,-38,-10,-24,-1,-44,49,-50,-39,10,-60,-8,-57,7,18,-16,23,3,15,-36,22,85,20,31,-56,-30,4,43,-19,-1,-11,48,21,-47, 
  /* [1][0][][] */ 56,-92,35,-31,36,4,-69,16,-81,-24,28,-39,-39,117,-86,50,21,3,0,-25,42,-1,56,-11,60,-8,25,79,-28,54,15,-23,-72,11,-39,-49,40,-42,83,-69,-9,-50,44,67,-54,-41,7,41,68,-67,71,-12,58,-96,-26,-127,83,43,16,84,-40,-26,46,-57,-61,24,1,-72,-28,40,-1,96,46,20,87,-56,-4,20,-39,-64,-3,4,40,-30,23,15,109,-40,88,38,16,21,-44,67,15,-19,0,-41,-58,-47,45,-120, 
  /* [2][0][][] */ -9,-26,0,3,-75,0,-40,-99,-31,9,38,15,-86,14,16,-41,-76,-49,-32,11,-24,60,5,-111,-27,-6,108,-31,10,-92,71,-51,-61,-41,65,34,6,3,-23,6,111,-28,69,35,-71,-7,17,47,-4,-43,49,38,-18,-24,-38,1,-70,-15,-37,32,-57,-31,-10,-43,-32,-37,-8,-13,28,-127,-8,62,18,-25,-27,-12,13,38,84,-23,52,-20,-3,12,-52,61,66,13,-41,-2,3,75,-28,18,32,3,-38,17,-18,-105,-5,33, 
  /* [3][0][][] */ -40,41,-23,6,9,-31,-108,58,-60,0,-35,102,46,-50,-7,-41,-28,0,-84,-34,2,38,-83,-28,-15,-38,-90,-45,16,-11,80,44,-47,-65,-9,-55,43,5,-34,-2,48,32,-48,17,36,-8,-10,-1,58,21,-7,-31,20,-44,2,47,-11,100,55,36,46,-3,-31,-79,-41,64,-11,-31,11,20,-29,-23,-84,-37,127,-82,44,16,65,-52,48,69,-8,-30,9,80,20,-2,-14,-4,-94,-78,-104,36,47,79,43,-26,-29,19,-109,-67, 
  /* [4][0][][] */ -54,6,-20,29,6,-27,-8,-10,-49,2,68,-30,35,28,14,-63,-1,68,20,-2,-12,4,70,24,18,-19,-8,42,22,-15,-29,32,-14,-67,9,-1,10,48,21,-41,10,53,-54,-83,-45,-55,-51,39,11,8,-10,-27,-13,5,73,-5,-16,18,-45,-32,-14,12,62,6,-34,-14,69,10,18,9,-25,-55,-28,-27,10,-5,-14,35,-38,7,-41,-4,4,14,7,-34,-22,-32,-43,14,9,-45,-68,127,-5,-5,16,26,-54,-67,75,-71, 
  /* [5][0][][] */ -10,49,-29,-87,7,1,-54,-32,-47,-11,4,4,-7,-21,90,1,-35,38,-59,12,120,45,-36,-55,-61,31,-71,127,6,-18,80,-9,5,19,-18,-48,16,21,87,-28,-1,-33,-75,4,-57,112,50,23,14,-90,20,-13,46,84,-36,-32,0,30,-69,-1,-63,-32,0,-38,-77,-79,-38,-15,-86,47,54,16,-12,-21,1,31,-71,9,-122,-41,-36,11,49,25,30,-25,35,47,-32,78,90,67,-27,8,60,-30,32,37,30,92,-11,1, 
  /* [6][0][][] */ -5,-54,-46,19,-7,10,-8,-38,-46,-5,35,40,1,-12,-17,-34,-66,-48,-20,13,84,96,-65,-1,-42,-45,30,-17,-13,-36,-52,0,-40,1,-53,22,7,72,-21,68,-105,50,-46,-27,6,-10,21,-28,38,27,44,15,53,99,-30,45,0,29,-23,15,-73,40,-38,23,-45,12,32,-17,27,42,-15,-63,14,2,70,-54,49,-56,67,62,-44,-42,-8,27,-69,-64,-3,1,20,58,50,79,-34,12,2,-54,22,-1,-62,-80,-42,-127, 
  /* [7][0][][] */ 3,127,41,26,84,-12,36,20,13,82,-17,-101,-64,-76,63,59,-40,-61,34,-71,-74,19,21,45,-20,-82,-12,6,54,28,-83,-28,-79,-62,-28,42,42,-16,108,5,-64,26,-5,88,-89,-93,-59,37,29,-86,-49,-54,-35,-11,42,-47,7,46,-9,-5,0,16,25,41,-28,36,-40,-19,-38,-38,-29,58,39,36,19,58,81,72,44,-32,100,-7,107,61,-8,39,21,32,-102,-65,-13,40,32,68,-12,67,19,19,-33,-82,-21,1, 
  /* [8][0][][] */ 82,69,7,-32,36,-27,-8,-44,-29,-4,48,29,77,-12,120,-79,16,-15,-56,-1,-50,-19,-6,69,-52,66,-71,-87,81,119,-34,26,2,83,-64,2,-13,14,-127,29,-99,-88,18,-13,-51,3,-55,-12,-41,24,-13,-46,-16,77,4,30,-29,39,2,-27,-55,5,1,-65,88,-47,86,36,3,-9,-15,2,-40,-20,9,-26,-43,7,-74,12,-52,10,-64,-22,61,-25,-12,39,9,24,37,20,0,-23,-20,-45,63,-45,8,-31,-78,-57, 
  /* [9][0][][] */ 77,-126,-22,34,32,29,-13,-15,106,73,-39,44,-20,57,106,-67,-64,31,104,-31,79,25,0,-58,69,-30,45,-93,-44,-10,-2,-5,2,0,-25,12,-5,50,37,-6,48,38,2,7,-65,-37,57,-19,53,-90,56,30,13,14,-19,1,-127,28,-57,48,14,40,-5,-7,12,27,-43,64,-65,113,34,48,0,49,-56,-63,-45,-13,5,59,32,-6,50,-104,-41,-73,-19,-27,-40,-36,15,6,3,14,-34,29,40,44,5,-59,118,24, 
  /* [10][0][][] */ -44,23,-62,63,1,-23,-10,6,15,26,7,-66,49,32,40,-23,-7,-32,-56,-16,-8,-4,-34,-37,56,48,28,23,-59,-9,-10,-8,-39,-32,17,27,5,31,-8,-3,-5,-83,-63,-15,-5,-16,-15,-10,36,6,27,33,-51,7,59,-12,5,127,16,-9,-31,7,1,55,16,-14,28,-21,-14,27,-29,-4,-19,-31,5,-41,6,21,68,0,-8,-5,21,21,-6,42,-50,98,-110,-16,-1,-2,-13,-77,-27,-59,-59,-63,3,26,44,-40, 
  /* [11][0][][] */ 33,-3,-3,51,25,3,-57,25,25,16,-15,-13,50,127,34,-32,37,-43,34,-19,-9,-64,14,-6,-38,38,31,-60,8,51,-40,21,-71,64,45,6,-25,7,-61,7,33,-34,-7,32,26,-13,15,15,18,14,-104,-8,-56,-3,-50,-5,-40,-17,11,-6,-18,-11,0,-8,72,37,-71,46,16,-72,10,12,37,8,-4,88,10,-4,12,-24,-2,0,50,48,-3,77,13,-31,-29,11,-26,0,-50,7,41,-28,-2,14,-18,25,-12,12, 
  /* [12][0][][] */ -75,56,36,37,36,-18,81,-10,-6,-5,-20,-15,-25,-50,37,3,26,1,-17,-22,26,51,-3,106,68,61,9,14,-27,37,2,-10,-29,12,-66,16,-32,22,-10,-27,-65,8,-72,14,3,-19,-57,57,-35,-43,-94,-85,19,42,-25,-49,37,-13,-23,-8,11,-10,64,-26,-9,53,56,-10,23,8,3,8,48,65,4,31,39,-35,38,-14,-16,16,17,-19,10,7,-41,5,-14,54,-19,-49,48,10,-36,53,-90,19,-9,77,39,-127, 
  /* [13][0][][] */ 127,-23,46,37,-15,61,-23,-8,6,-43,28,-5,-40,-53,6,35,-13,-4,-63,-28,39,-6,6,-2,-47,-13,41,72,-32,-22,-27,-19,61,-1,-17,-85,-37,-33,-57,-48,-12,4,-87,-20,-5,20,-29,-16,62,-31,28,48,6,34,73,74,9,27,-37,-64,-78,-23,-17,59,-96,2,-102,3,-33,-56,40,33,-20,-22,19,-71,27,31,-97,3,-4,-4,28,37,33,-19,38,48,41,35,-40,-52,-87,-24,69,10,-64,34,51,-10,8,-19, 
  /* [14][0][][] */ -4,-63,-79,76,16,-37,-16,-4,48,-58,49,44,-67,64,-21,31,-100,-88,-127,-7,-18,76,-58,-36,-108,-12,-60,17,-89,69,55,-79,71,23,-43,62,-26,-33,70,58,-13,-6,2,-52,-94,44,-29,-10,27,14,105,0,-28,53,15,8,0,12,-80,35,48,101,-1,45,-20,-5,14,-2,-9,33,-23,-11,-21,-26,20,-117,92,62,38,60,-61,-45,9,-25,22,-20,1,26,23,-3,-3,-49,43,-36,-25,-8,-33,-49,-7,-38,62,64, 
  /* [15][0][][] */ -19,29,-22,12,-60,-29,-23,-70,-2,34,-7,19,114,-39,91,27,14,-58,5,-38,-36,-27,11,34,0,3,-15,3,-24,-7,-33,7,-1,43,-5,-13,-38,-26,-18,-28,11,-26,-127,-17,31,11,5,-14,-8,-43,-101,-18,44,-57,29,44,-37,-44,-45,-41,88,-42,3,-54,-28,57,30,33,-26,25,51,2,-1,-17,26,1,38,44,22,34,54,3,-27,83,-7,-58,-67,4,-41,-90,-18,-25,33,-43,-10,-40,-8,-8,36,25,27,-6, 
  /* [16][0][][] */ 21,50,68,48,40,1,61,-34,-49,24,-55,-4,31,8,0,-3,5,-21,32,84,41,0,20,83,4,46,2,-111,36,23,27,-32,-99,-51,-1,-57,31,-38,-89,84,66,-63,-29,-20,-52,-71,-70,-15,76,86,39,12,-52,81,31,72,-10,-22,-32,27,27,-66,-49,-127,-76,-14,-21,54,-28,-22,44,85,-36,34,11,24,-21,11,69,8,-2,18,51,-26,59,50,31,35,91,34,12,-57,-21,-22,-33,45,-2,-58,-49,7,-41,44, 
  /* [17][0][][] */ 45,0,-13,-35,-4,-21,47,0,16,-100,-2,-6,-19,-47,-16,-34,-8,-62,-16,16,-24,31,39,-12,-5,-16,1,42,25,17,27,69,6,-18,28,-14,20,9,-3,-3,-25,-1,-55,-5,65,-66,1,-1,36,-3,4,4,40,-35,14,-46,57,-39,16,-18,-4,-33,-19,56,-37,2,6,19,22,-46,-23,-20,0,-21,-26,6,-3,68,17,7,-41,-127,-34,7,-70,29,-1,24,26,41,14,-25,-39,1,11,-45,40,-79,39,-22,-18,-11, 
  /* [18][0][][] */ 38,3,-17,2,77,21,18,-2,40,-46,-4,-24,-15,42,-53,44,-59,-7,-50,25,-35,67,-12,35,41,17,12,68,-127,-28,-39,-49,-35,-34,34,48,22,6,-7,-44,-70,-39,45,46,41,42,48,-42,-37,-107,-13,-45,3,-45,-90,32,31,-22,6,-23,-123,35,6,-62,32,-5,-14,25,-6,13,20,8,1,45,-24,-16,-49,47,2,22,53,103,3,64,-98,-20,-63,-34,54,60,-14,-39,16,35,-1,9,65,106,-56,-4,-4,-42, 
  /* [19][0][][] */ 27,22,-60,-17,30,-47,-32,-94,-59,40,30,-33,-103,3,-37,-7,72,-4,-8,-25,48,-57,-1,-11,20,-22,-25,6,60,62,-49,62,85,57,63,-18,45,9,-7,-17,-80,-2,-87,53,-127,65,-23,57,42,37,-34,-15,6,-107,-38,47,-63,-118,-32,55,-34,-7,41,23,43,-32,-94,49,-23,-108,-50,-73,13,19,-29,-7,120,-93,28,-39,34,41,-58,-18,36,-32,-29,117,12,44,-48,15,25,-96,6,25,-61,-5,8,-9,-24,-46, 
  /* [20][0][][] */ -34,-48,20,87,100,-1,-72,-2,8,-16,-35,42,14,-30,-39,-119,57,-6,69,-68,-113,110,77,-50,40,68,-3,-46,78,5,-24,0,-67,3,-36,-79,7,15,-80,-62,-59,-37,-28,-11,36,97,25,-20,33,101,-53,-63,105,48,-92,22,-76,-87,38,18,64,36,11,-61,-46,25,-127,28,-26,-38,68,63,-33,74,87,82,60,-29,-53,-47,-58,9,1,-12,-18,7,-121,-16,-9,15,3,-28,-25,39,-16,21,-53,-17,31,64,94,4, 
  /* [21][0][][] */ 20,-13,-42,65,-46,48,-80,26,-15,14,13,-1,-39,121,-50,27,-37,-36,-13,-38,8,0,44,-11,5,-6,39,6,-34,-42,-23,10,26,-127,19,-20,9,2,8,90,21,32,85,37,-3,2,70,19,29,-26,-14,-14,-39,46,3,-17,-79,-44,33,-47,-9,-11,10,-6,10,-30,-80,0,26,49,-15,-21,-81,-1,-25,-47,-36,8,-76,-14,-28,-7,29,-37,-24,-8,14,-62,25,-10,-3,2,-56,120,37,-19,0,25,81,10,-44,27, 
  /* [22][0][][] */ -8,-22,31,20,-31,-12,-19,-30,-76,27,-64,72,-2,54,-88,16,40,14,-66,-29,-64,-8,19,-1,-120,47,-38,-21,43,-31,-41,-30,1,14,-46,42,-51,-15,-31,-47,-46,107,-13,-28,33,-24,-8,79,9,16,44,-26,7,-10,-21,-18,26,-54,2,-18,-89,-6,41,-48,27,82,7,1,7,14,13,-1,-58,13,88,39,13,62,-30,-39,26,26,21,127,-42,-10,2,47,35,1,11,48,-9,-11,56,6,-5,-20,48,67,11,8, 
  /* [23][0][][] */ 17,-11,27,29,17,-34,-21,21,-8,14,13,42,-6,-19,36,-46,19,-25,15,-35,-15,-1,-25,58,-48,10,-42,36,12,-13,24,8,16,31,4,-30,-23,-12,-51,3,-4,-14,31,-23,-34,45,19,-13,14,-18,42,21,-10,14,-30,-12,-17,48,17,9,-23,9,-2,-127,-2,47,8,1,-15,28,-39,-6,-9,-12,-34,-25,2,-29,18,10,-31,-9,-48,47,22,-25,-17,-37,-48,-7,-19,23,5,0,13,14,-1,24,-14,-29,13,10, 
  /* [24][0][][] */ -35,12,30,15,5,-69,-6,31,40,39,-54,-6,46,48,-13,-6,22,73,15,-50,15,-42,74,-120,-19,-3,7,28,-8,-10,-29,-10,11,85,36,25,0,-28,31,-2,19,6,-28,48,47,2,76,18,23,-5,8,-2,-7,-37,-46,-60,-41,-105,-67,-42,-25,-27,38,112,127,49,-2,14,-47,6,16,39,61,4,-76,-25,-13,-26,-80,-33,31,37,27,9,-24,89,-72,36,9,9,6,28,28,24,-47,11,-87,18,23,-59,43,-19, 
  /* [25][0][][] */ 67,-16,1,-5,-7,6,-36,-4,-45,90,-24,53,-88,-24,74,-16,59,-15,13,-42,-127,94,-60,-65,19,46,22,-52,-33,-31,-28,46,-17,41,-88,-39,-31,1,51,-9,-99,41,35,-33,61,-18,-23,113,67,-5,38,-56,1,20,83,3,29,5,11,5,-104,-48,119,44,89,-29,62,45,-22,44,63,46,90,-15,8,112,-54,-80,-51,56,53,-85,18,-108,67,32,-67,-19,-112,-60,29,-44,-23,-35,-75,16,9,1,-22,-43,-98,16, 
  /* [26][0][][] */ -48,17,0,-28,-63,45,7,39,-127,-18,-15,39,-22,-13,38,31,-19,27,-40,-22,53,72,19,-115,-20,1,47,34,-4,-47,-10,29,10,18,-70,-12,57,54,-7,-39,-3,49,58,0,-35,3,36,-17,-12,-27,-50,-40,0,3,6,-39,22,-14,-31,5,-48,-72,-30,-48,36,23,-20,-30,33,-48,55,-19,51,-12,-3,-30,97,-57,-39,35,-19,-29,-10,17,18,72,3,14,-8,16,-3,-23,16,17,-33,14,5,13,0,29,67,22, 
  /* [27][0][][] */ -42,-21,-56,-8,-29,-3,16,-16,-75,-81,-12,-61,-30,-70,68,-127,17,3,-29,-30,47,-12,26,-11,-23,64,-5,-39,-11,-22,12,71,-45,15,11,-25,-15,28,-37,24,-11,12,21,-23,-11,36,85,-19,-5,-69,-11,30,13,12,-22,9,62,-57,-6,2,-3,30,-13,8,30,54,10,15,0,-19,70,-6,-49,76,26,24,25,36,-86,16,15,-54,35,9,-10,12,-11,9,29,-36,-46,-71,10,25,19,-35,-4,6,30,-27,29,-37, 
  /* [28][0][][] */ -3,27,-13,-35,51,-43,26,-11,-86,40,-8,8,2,24,18,14,-56,7,20,10,-86,-49,27,-127,55,2,-66,0,-6,9,31,-19,-48,28,-35,29,-21,35,25,52,-22,-57,-97,10,55,51,3,49,113,-10,-6,21,-49,-1,14,20,-22,-14,-18,-52,25,22,69,-95,9,-77,32,85,-29,14,-56,-39,-62,12,33,-56,-49,-9,-66,102,-75,1,44,-6,-35,74,-17,-42,-41,-34,-24,-40,3,3,69,-52,-17,35,-102,-40,-18,37, 
  /* [29][0][][] */ 67,-12,28,-49,-41,102,-4,58,26,-11,22,-20,70,-30,12,27,-7,-7,25,-55,-24,-31,-50,3,-83,-24,12,-8,10,127,-56,30,-74,-21,-1,-22,15,4,59,-46,39,-26,108,-102,-54,92,5,-36,-20,12,97,16,-101,25,-89,-11,-36,-42,21,-11,40,-15,-40,-41,1,26,89,-21,38,-6,-58,48,-17,23,11,19,-14,12,51,29,22,-39,13,7,-19,-23,-4,-22,52,10,-44,-10,38,54,-4,-28,-14,-6,-67,26,-23,-16, 
  /* [30][0][][] */ -91,41,-89,-37,-1,-50,34,28,8,-36,-19,-20,-45,4,36,14,-51,24,-17,-14,-4,-53,-82,-64,-21,-84,12,62,78,-56,-12,26,42,-43,-4,37,-20,5,-34,76,63,29,-127,-23,65,7,-14,2,-83,80,-50,13,22,4,-32,-1,-7,-9,15,34,-57,-22,-43,-24,23,-19,16,-60,59,83,122,3,48,-40,-79,10,-15,27,-81,-11,19,22,-18,16,20,-26,93,3,3,34,49,-10,-93,38,-11,2,-2,56,-85,-79,31,22, 
  /* [31][0][][] */ 15,20,58,21,45,53,-62,21,24,-27,37,56,57,-18,-20,32,5,-35,-33,-21,38,-29,62,31,-32,16,-12,-39,28,-18,18,-2,-62,8,-16,-42,-25,27,39,-49,-2,127,-19,-73,13,1,30,-24,-8,-46,28,19,-34,-26,25,-15,-15,-34,16,22,85,8,-6,-63,-21,70,39,-19,-5,20,10,-47,-3,-37,2,9,-23,-83,-26,-23,11,12,17,31,-1,33,-9,-14,51,-3,32,-27,10,8,5,-13,21,-24,-18,33,1,-29, 
  /* [32][0][][] */ -32,-21,0,0,-34,-29,5,46,37,14,-17,-3,-25,14,28,-9,-27,127,17,-30,45,20,16,4,-14,33,-82,-6,-26,61,7,18,-35,-36,8,-38,-36,32,-25,31,-22,-52,-3,21,-109,-53,4,-23,47,-24,-3,5,8,-32,-23,1,26,17,-5,-12,-48,-1,-39,-24,-35,-66,-37,-28,-5,-22,23,-23,-85,-1,21,-15,-6,-54,30,13,-62,-21,29,15,3,-12,26,-18,-17,-45,55,-14,16,-47,14,-46,-22,-18,58,-18,96,27, 
  /* [33][0][][] */ 8,-91,-16,11,-60,-28,41,-28,-86,-37,-15,35,-10,-3,-14,7,-50,-2,1,-27,-28,20,-55,-57,-63,35,1,-4,44,-56,-19,-68,-28,-37,0,73,-12,60,23,-5,11,-68,-25,-22,-12,13,3,81,-31,5,1,14,-53,67,-63,7,-36,23,-33,18,29,40,65,-72,45,37,24,55,-28,30,24,24,7,55,-4,-127,16,-102,16,-31,-17,-121,-4,-5,-30,-9,-4,-29,-15,29,19,-26,-25,44,-6,-24,43,-15,-17,32,57,-68, 
  /* [34][0][][] */ -20,-9,-55,-33,83,-23,-1,-2,3,13,20,-110,27,-61,-44,21,21,13,-6,-34,7,13,0,-15,-7,31,-37,48,-100,56,20,-51,-38,-75,-119,25,-30,-23,15,40,8,21,2,28,-1,-60,-127,-31,32,-2,-6,7,29,-12,-48,-58,103,-14,2,-2,35,49,-22,7,6,-37,-19,-35,-35,42,32,-34,26,18,-13,9,-52,1,42,17,44,-42,-22,71,8,59,-8,-18,-74,-12,-13,14,-13,53,42,-32,-25,-73,-50,-17,72,23, 
  /* [35][0][][] */ 43,-30,0,-24,36,31,-19,-40,100,-23,44,56,-12,-1,56,-20,57,-7,-47,-1,-20,-14,-22,69,-24,-63,-15,46,-48,-29,-44,83,-30,40,43,29,127,-49,18,-65,12,19,39,1,-10,-23,9,78,56,-8,41,32,-4,9,6,-81,4,61,-16,-3,-55,44,92,21,35,-38,-16,7,2,13,1,12,-52,58,37,-22,-76,7,-50,1,-75,57,-13,-23,-45,26,22,21,24,-4,17,1,-30,47,15,-13,26,13,16,12,-46,-108, 
  /* [36][0][][] */ 11,-67,28,1,-22,64,22,8,20,-37,-78,3,-22,20,-3,-97,62,127,-44,-50,-6,71,24,-63,-47,8,-51,35,10,-68,-14,-34,-77,32,11,-5,13,-54,-38,-86,-63,37,-38,-26,2,-32,-10,-29,8,-47,56,88,-33,-76,-43,-65,-30,23,22,19,43,15,9,-54,62,-81,21,34,-13,15,-36,-41,45,-4,42,2,50,30,-17,48,-76,1,17,43,-7,-25,-49,4,85,10,-52,3,26,-7,-51,-42,-45,58,1,-32,-20,19, 
  /* [37][0][][] */ -6,-2,-23,100,83,16,-41,52,4,-127,43,8,26,75,-12,-25,9,18,42,-5,32,48,-65,-60,123,-70,-53,7,31,-52,19,-35,-38,40,63,-16,10,-86,13,-17,-45,46,-17,75,21,-50,34,6,-53,-10,58,4,-31,44,-18,57,13,-29,-45,-47,30,21,49,-70,-61,24,35,-36,8,-55,-92,66,-113,-35,-2,10,-56,-27,15,-7,66,-8,65,0,44,-57,-75,108,30,110,-37,35,-26,6,-14,-118,-39,-23,25,-82,99,-12, 
  /* [38][0][][] */ -28,43,-57,-27,-84,76,-30,10,-12,-2,-9,46,-8,65,76,127,-8,-32,-29,-28,29,-65,-56,-39,-17,8,19,-37,65,-89,-94,-23,47,15,43,99,20,-6,-69,6,-6,-44,15,-4,2,17,-44,54,26,-22,-19,47,56,-37,16,29,-87,60,-10,-5,-21,14,30,-57,-11,-24,-75,35,-4,13,-36,-34,-94,-25,11,70,17,53,80,11,32,-1,60,-84,-85,-6,-18,-57,84,34,-29,-43,29,5,29,4,-98,74,17,-65,-1,72, 
  /* [39][0][][] */ 46,51,13,6,62,-31,23,-52,66,33,-31,-38,-15,-39,3,11,21,-24,-5,-44,-81,83,-97,-42,14,-8,-65,39,-59,50,-78,14,-101,-15,-90,30,55,-25,-20,-32,68,-6,20,63,-47,-36,-44,-10,-64,-119,40,34,107,5,63,5,31,35,38,13,-64,25,-16,25,70,27,7,12,16,47,-39,-66,11,79,52,34,55,-76,7,-54,26,-48,-102,16,75,11,28,-3,127,-120,-46,-8,-7,-9,23,-64,32,83,18,-2,60,21, 
  /* [40][0][][] */ 35,21,-93,-80,44,16,-53,-55,-71,25,59,-74,-16,-4,24,-38,12,28,63,-22,14,28,53,36,-19,15,-16,37,-79,24,4,-76,68,-44,14,0,-3,7,-16,4,3,7,-60,30,-2,-89,-7,-13,17,-107,69,-37,10,-18,-63,44,-31,5,-19,-38,-15,21,11,2,-63,49,-49,3,29,-3,-31,50,26,14,-30,-50,17,-34,-34,24,-18,19,89,0,-13,-89,-17,-11,127,-22,-56,-10,-76,49,30,26,-25,-71,25,87,33,19, 
  /* [41][0][][] */ -17,38,-41,95,-77,-48,50,37,61,0,20,-55,-95,-14,-25,-16,57,-47,-4,-57,45,40,102,25,-34,25,-96,31,-51,41,22,-40,-7,102,-95,7,39,61,74,45,-73,-73,-56,-62,62,-74,51,-2,-38,-107,2,41,0,-108,-86,-6,109,0,123,50,-24,37,55,-72,86,26,-105,96,73,23,12,43,-10,75,23,48,-79,-24,-22,17,-99,-63,30,-84,-42,-127,-14,123,-20,79,37,-7,25,119,-92,13,45,-76,5,-5,34,-27, 
  /* [42][0][][] */ 13,-1,-38,-11,-17,-3,-28,-66,2,-68,-13,-19,127,22,23,-16,0,25,-25,1,12,8,10,-7,11,-41,-60,-17,-19,-32,37,-1,30,64,18,-36,17,-9,-44,25,31,-10,36,41,44,69,12,-28,36,-89,12,-14,73,36,21,-39,74,31,-19,-53,-16,9,28,3,41,20,19,-34,-35,51,-25,4,15,-18,1,-15,84,35,-49,-22,24,-13,15,-26,-48,-75,-13,4,-21,8,0,-39,0,-19,-14,10,43,-33,2,-32,3,5, 
  /* [43][0][][] */ -24,5,-2,-100,-12,-24,8,58,48,51,-49,26,105,31,0,-67,83,15,55,-45,10,-74,-29,-1,14,38,71,16,54,-57,30,-95,-48,-34,-52,-5,-43,-32,37,22,37,81,37,-19,-73,50,127,-4,-59,44,56,-32,-20,-21,79,106,-7,-100,36,8,-101,16,5,11,-23,1,-26,3,-15,-17,13,-61,-47,23,36,-29,-32,51,4,-8,-73,-58,-57,-9,38,-7,9,89,-55,-10,-37,-51,-82,46,-27,-8,54,-111,15,-31,-41,62, 
  /* [44][0][][] */ 18,-65,-21,54,-29,87,9,-14,-43,20,2,-78,-86,5,-67,50,93,124,77,-63,94,82,-9,-17,56,35,-42,-12,-19,-38,31,-9,36,-6,-4,55,-36,113,-79,-109,-38,65,-21,-21,40,19,4,50,-127,20,28,40,38,-17,-57,-35,55,-45,72,41,-61,13,46,73,68,29,-30,-49,-74,18,66,-29,-30,30,4,-38,71,35,-77,-14,-36,50,-4,-57,67,-28,-11,33,95,32,-45,-56,-10,-59,-54,78,-49,3,-17,-59,52,-103, 
  /* [45][0][][] */ -25,9,18,82,3,10,-41,2,-104,79,3,-20,67,-73,-30,68,-27,-25,126,8,127,36,27,21,49,19,-21,-92,43,40,35,81,-5,-1,-25,-41,-47,21,2,0,45,-44,-77,52,35,-66,-39,-56,-1,-9,10,-14,16,45,70,-35,34,-27,90,53,12,-50,5,85,-59,46,81,62,26,8,-37,20,-1,-43,16,-40,-12,-73,-8,13,32,-20,108,-6,28,-13,11,-3,-29,11,-61,-49,85,92,-77,-18,-23,0,-39,-22,73,-51, 
  /* [46][0][][] */ 7,-56,19,-95,-42,-29,-17,-47,107,43,-4,35,7,52,12,-25,-28,41,28,-25,-17,-22,41,-4,31,-6,-11,-36,-38,-55,60,53,-62,-71,48,46,34,-96,-41,71,101,-19,18,-47,0,52,21,22,-4,-108,10,-23,78,-3,-22,87,-41,-37,-55,49,-13,104,-19,-14,-58,28,-81,-47,-53,-6,-23,-11,-5,-45,13,-20,-1,4,41,4,51,-80,-58,36,48,-102,127,-95,15,36,-15,-3,-11,-8,93,1,16,20,28,-117,-7,-18, 
  /* [47][0][][] */ -34,-15,1,-71,24,-31,-52,19,-9,85,46,-11,-23,55,-3,20,19,-38,-58,-33,127,-8,-55,11,-11,-59,24,8,8,-23,-25,16,-22,-27,50,-26,-20,-73,39,-56,20,0,-42,16,4,4,-50,5,-1,-15,6,-41,-29,22,-24,-114,-3,-4,20,7,-81,9,51,-26,11,-5,75,53,0,9,59,1,-52,-19,52,-8,-2,-125,1,-4,-44,35,2,-10,-30,-63,-8,-26,-67,-38,53,-31,-29,24,-25,72,-4,23,36,-2,111,-13, 
  /* [48][0][][] */ -5,-21,91,11,-19,-54,60,40,3,-25,37,41,13,11,-61,20,-60,-80,-64,-84,-32,-14,-47,4,45,46,-27,-32,59,-24,124,29,47,44,-13,-52,-35,-80,-28,-33,-18,-15,-3,28,-48,118,63,42,-54,67,-9,-8,4,-46,-31,14,-44,4,-31,20,5,8,-34,26,7,21,-28,-23,-41,-1,-20,2,-18,58,2,-52,15,65,-72,-5,-50,15,-4,24,48,11,34,-14,54,127,-61,2,17,-6,65,35,-56,-32,-45,-22,-28,-55, 
  /* [49][0][][] */ -39,-50,12,-9,-39,-16,-50,-1,3,-28,-1,-54,-60,26,-28,17,-12,-13,-53,-64,52,-41,49,-25,-23,-7,8,47,-20,12,-59,-30,36,30,-82,-8,32,39,3,-127,8,-23,9,10,39,20,-26,11,-6,-49,42,-2,8,8,-7,-6,-16,12,-22,-4,-43,34,17,-78,-41,22,-34,-31,31,4,-38,-39,-29,-1,-1,58,21,-8,12,21,-14,47,-24,-10,-4,-15,37,-23,-2,40,-37,-50,-72,-51,20,-36,-19,-46,14,-38,-23,-14, 
  /* [50][0][][] */ -16,-4,42,64,-10,-82,-3,3,-19,59,-39,36,4,32,-30,-33,126,-66,-72,2,91,-89,11,22,106,-52,-42,-14,49,-11,22,13,-9,-50,-31,-4,-10,-20,-30,-40,6,30,8,19,-95,52,36,-66,22,-37,127,-66,-4,33,-55,-1,0,3,-4,28,-11,40,-64,-21,27,-38,48,62,-84,-49,1,27,0,-24,7,-30,27,111,-15,12,-15,-37,-3,-34,13,-10,-4,-52,-21,29,-22,-11,-11,-43,12,4,-22,-40,30,40,-19,-74, 
  /* [51][0][][] */ 13,25,-44,16,9,-36,0,32,37,12,-3,-81,-30,-22,-4,-2,31,20,18,5,29,0,43,-8,14,48,16,48,17,-20,18,7,-31,0,-3,-37,13,-33,14,-33,-31,-7,19,1,-2,-23,-5,-8,-23,-3,-32,-48,-39,63,36,45,63,11,1,15,-32,1,10,45,20,36,-37,-6,46,14,25,12,17,16,25,26,-18,26,-2,-20,-50,8,-33,-18,-59,-4,-41,-35,1,9,-24,25,15,-7,-15,21,-25,-37,-127,-37,35,20, 
  /* [52][0][][] */ -33,-25,28,33,-42,-39,29,-51,-68,-58,-33,41,-23,-32,127,19,-20,-35,-1,-32,-23,-61,-7,-92,-10,-26,26,55,6,-4,51,12,5,-31,-38,8,38,-51,-26,33,-28,-22,19,-60,7,-23,-15,1,-9,-90,41,-19,17,12,-32,-3,-10,15,-41,-65,97,28,8,2,-81,-39,-73,29,-75,-90,114,26,-48,23,-23,-34,22,23,70,25,-24,107,26,90,6,59,-7,-53,52,10,52,9,-26,22,41,-38,0,21,-27,75,-62,-12, 
  /* [53][0][][] */ 55,-8,10,111,50,-5,66,53,55,22,61,29,42,4,-102,-2,26,116,19,20,14,44,30,-13,72,-26,-13,-3,31,39,-63,76,104,1,-77,-33,11,-34,-68,-50,-67,-8,-48,30,-3,53,64,-12,-26,53,-62,85,-40,37,-127,-15,83,18,2,-58,-41,9,22,16,4,37,61,54,69,34,-3,19,33,26,-16,14,-19,-41,12,-12,-53,51,-21,-7,-8,-25,-41,-5,-42,-83,-5,18,-15,68,-13,100,40,1,14,47,41,-79, 
  /* [54][0][][] */ -73,-127,-33,8,-25,54,26,-40,-36,-16,19,17,-32,1,8,31,7,13,16,49,46,-25,-26,-7,14,-56,19,-20,-27,-15,87,27,-66,-5,-13,-10,33,-50,8,-11,36,-19,-16,32,-7,-23,-17,18,-10,-48,29,-6,7,-12,-8,39,9,26,-2,-10,-6,17,5,21,-51,32,-13,28,-36,2,8,-16,-102,-19,17,-41,-33,10,41,-52,-2,-39,-18,29,-14,-41,47,49,3,37,-59,-14,-15,12,66,-10,52,25,19,-26,-54,9, 
  /* [55][0][][] */ 1,-12,59,6,78,-46,-45,-19,24,-29,-35,-42,-4,-40,-55,7,-31,-18,-7,-30,-53,79,-76,30,112,7,-3,46,-7,6,8,-11,2,16,49,-72,-3,16,85,8,-13,33,-26,16,45,1,-30,-51,-23,-46,-16,-46,6,-49,41,-53,33,-7,19,-12,-38,-6,32,1,-24,58,-71,-9,-45,60,25,-83,69,-32,50,19,-4,68,-14,30,-36,56,28,39,-27,7,-17,-7,55,-33,-7,-56,-34,-48,-61,-41,43,-16,127,-31,30,-36, 
  /* [56][0][][] */ 16,-17,-47,-33,74,-6,15,-6,3,-51,31,32,34,-25,68,-10,-14,-32,-49,-18,-23,57,-36,-6,-63,-7,15,-11,-30,-25,0,36,15,-33,52,-2,13,-24,3,43,-19,-23,24,47,-1,-51,-27,6,26,-87,-6,38,41,-3,15,-37,-6,-28,5,36,12,6,-28,11,11,-46,127,-36,-36,-43,17,13,-17,45,-31,-26,-16,-4,15,12,-36,5,-29,8,-28,17,78,31,-45,68,12,-18,-3,-4,13,-56,-45,50,-54,-29,24,-42, 
  /* [57][0][][] */ -43,13,34,38,14,-19,127,51,-85,-99,-14,49,-11,-8,35,-106,-33,-58,72,40,-55,-12,-61,59,-38,-8,-84,56,-46,7,-44,6,36,-7,-27,56,-32,-103,-2,44,96,-29,-72,13,-32,17,-50,20,74,-22,61,7,34,-24,-79,57,-7,-76,-24,-1,-13,10,0,-52,-23,1,-57,84,12,22,32,40,8,49,11,-51,52,-11,1,-43,-61,60,-29,15,-49,-56,-37,-46,-5,17,-19,-27,-10,51,7,-26,10,62,62,-36,-18,-98, 
  /* [58][0][][] */ -8,-17,-12,-35,-36,-10,36,-10,-56,-44,4,-40,-1,-12,-20,28,-9,-10,13,-13,-36,36,3,30,22,-6,-2,-29,2,-29,63,42,-30,-20,21,-5,-21,-69,12,41,-12,35,-4,-19,-11,-18,3,13,-36,-28,7,5,19,-7,-14,33,17,37,-42,4,-16,25,10,-26,48,11,15,8,-15,30,11,12,11,-37,-28,44,-5,-51,45,37,-127,67,68,11,37,25,8,-22,-12,21,-3,-13,-26,36,1,41,-3,-24,-37,-32,-16,-13, 
  /* [59][0][][] */ 74,33,54,-89,13,-58,-34,-16,3,-54,-23,83,0,43,14,-61,-4,20,14,54,47,-127,-30,-42,40,37,-39,-31,-36,24,-22,-3,58,-25,-18,-28,-67,-18,-53,-31,10,59,44,-95,63,41,-5,-44,-44,-108,51,-52,-11,52,-18,-5,17,-11,38,-51,-88,21,-18,4,68,2,23,-1,-34,31,59,-50,19,5,-41,-77,10,35,42,22,10,35,73,82,-14,-20,-17,5,-52,44,-33,23,16,57,11,-1,-56,-53,-78,72,-6,31, 
  /* [60][0][][] */ 15,-50,29,34,57,3,7,-14,59,-12,28,25,-35,-30,-23,-44,21,0,9,81,2,-32,-27,7,-103,71,-24,19,-9,61,20,-14,-24,42,-20,28,-105,-51,-19,-14,-71,37,-18,-16,-34,52,41,17,-37,-7,-77,34,51,63,81,1,121,23,-79,-5,-63,-33,1,-34,-44,-27,15,2,30,-10,33,102,-29,-48,55,-58,-4,-7,-65,-53,127,-2,-14,25,17,13,-52,-78,-51,9,47,-43,58,-1,-3,17,1,-46,-45,3,1,44, 
  /* [61][0][][] */ 1,-5,-16,-18,56,-44,-47,-13,8,50,-14,-9,35,23,-31,4,-3,-32,-62,-49,53,-26,84,-8,37,28,53,-63,-12,-21,3,-18,31,45,38,-5,-43,-3,31,37,-13,-39,-51,-127,-85,-63,-18,-38,64,-15,28,62,-19,19,8,39,-32,48,-11,-27,-29,24,-19,-60,47,1,-74,-53,-9,44,9,70,-13,37,41,21,23,34,-21,-27,-36,-23,-3,0,53,-41,29,-23,-41,-71,4,-1,-19,-12,-34,-16,42,-19,-8,-9,64,-47, 
  /* [62][0][][] */ -12,-5,-33,18,-3,-3,77,-11,0,-19,-25,12,-14,-30,31,-40,73,-85,-69,-73,-41,14,-8,23,-57,57,-67,29,-127,-32,-33,36,-16,22,-23,-82,-17,-53,-43,64,17,-43,-37,90,-7,-2,15,57,123,-21,-57,-35,-66,-30,31,15,-94,-11,94,49,-64,-17,79,-71,-116,-57,-59,-4,38,-29,54,18,25,22,-78,-59,-36,46,32,5,-14,-7,25,-34,-50,-26,-101,-91,12,-13,27,-33,76,9,49,-12,-44,42,102,17,61,-30, 
  /* [63][0][][] */ -9,-25,-106,-78,-39,-30,5,-30,-31,41,66,-36,-40,48,79,-39,-18,-98,20,16,-103,-36,40,21,-39,48,-68,61,127,29,-36,20,43,27,-16,74,102,20,-12,69,-34,-32,-33,-115,20,29,-88,76,-46,-93,31,-26,-56,-66,-24,-33,-52,-31,47,41,26,23,10,-15,59,-94,-30,3,-25,-1,82,-11,-2,85,-5,51,3,-6,-41,53,59,-117,100,71,-53,29,49,92,0,-47,6,-25,-28,68,-1,-24,-84,-55,-13,17,-60,-17, 
  /* [64][0][][] */ -67,-19,41,45,19,-13,-44,-19,-28,-20,19,-9,8,-40,-123,25,-41,17,41,17,-62,-37,3,-34,9,15,30,12,3,-13,-12,4,-11,56,33,19,25,79,-23,-23,-15,4,-17,-39,-10,39,-23,30,-8,-38,26,21,8,-68,-127,-51,40,22,-34,-19,-26,-4,24,51,-21,20,-37,-37,-29,25,9,0,48,-14,-38,-49,8,-51,22,-26,-45,45,-45,0,8,-5,6,-85,-2,54,30,18,16,33,-27,-24,16,15,14,35,-37,61, 
  /* [65][0][][] */ -46,93,40,-1,-29,46,31,-74,2,31,-12,-73,1,-19,-21,-8,-75,62,72,33,-15,0,-18,57,-55,-21,-7,3,-84,-34,-40,-34,8,57,59,9,46,25,-41,18,-42,-37,56,68,11,-34,-6,6,-48,-22,-62,45,-25,-10,-35,-66,25,-6,127,80,-72,-29,0,5,-13,48,24,55,-16,-8,-32,-4,-29,28,52,3,-14,43,-30,30,-45,42,-62,7,-43,36,21,43,58,24,-70,79,-71,12,-37,37,-31,8,40,-69,-40,23, 
  /* [66][0][][] */ 20,-106,45,64,-68,0,30,-14,68,9,-60,40,82,-78,45,-53,-17,7,-15,-56,19,31,-41,22,127,34,38,-22,5,-33,12,-28,50,-22,-9,115,-67,-97,-37,-34,27,57,36,34,50,12,-63,32,-78,-26,17,-13,-60,29,29,-42,26,16,-29,18,24,117,68,19,38,63,3,124,11,-47,-28,-18,7,-26,-8,-62,18,-41,-38,-21,9,-54,-71,-30,36,63,4,65,-67,8,-57,-13,13,-39,-43,14,-3,40,8,68,-7,-30, 
  /* [67][0][][] */ 57,89,-43,79,-16,-79,38,25,-25,53,4,37,-27,50,79,9,28,-5,40,7,5,58,38,-43,0,37,42,8,26,-104,127,-36,4,-24,-27,34,22,38,-55,-18,11,-42,-42,-30,54,21,-15,92,13,16,-29,-6,20,29,-2,-49,31,-11,18,-17,-13,-41,25,-44,32,-7,59,24,-54,10,-10,-7,-66,52,11,-28,26,35,-34,12,34,-2,0,-4,5,-89,6,-19,3,-56,-18,-64,-74,-16,36,2,-35,-23,-51,49,-73,-94, 
  /* [68][0][][] */ 9,22,-17,1,-35,-53,-56,-14,-59,19,46,-7,-74,-5,-19,-60,27,-12,14,-34,11,-35,-76,-24,15,-36,18,62,-127,-27,14,-28,-31,-48,30,26,49,-28,-19,-2,-7,16,-39,-19,49,-75,38,23,4,48,46,-24,21,-41,16,-9,66,32,-58,-32,-38,-30,-3,-40,-36,-6,29,6,-29,-15,-4,13,31,-7,27,18,49,58,10,26,29,-8,23,16,-34,19,33,11,-38,-38,16,-9,22,22,29,40,-17,23,-51,76,-2,36, 
  /* [69][0][][] */ -8,105,32,-73,10,-8,-9,56,-2,32,29,37,-36,38,5,0,61,90,38,-29,112,-3,68,83,60,25,104,-71,3,3,-11,61,-29,-6,-69,-48,4,-5,-83,-89,-103,88,-80,-10,-15,-41,14,34,88,108,25,59,13,-73,-127,-27,-102,-15,29,54,13,-16,48,8,62,-41,11,42,-28,35,-33,-2,10,6,-32,91,-44,26,-5,8,4,29,23,-25,-53,56,-24,-23,-7,39,82,-49,63,-36,-10,-80,72,-40,44,-85,53,-62, 
  /* [70][0][][] */ -53,-11,66,8,-58,127,-7,-49,-38,-25,-8,-40,-46,-61,27,-5,-12,-15,-56,36,3,-66,-21,24,-15,25,-79,20,-5,16,-7,-4,-54,-1,93,-12,1,13,-30,-16,-19,-16,50,-96,14,-31,10,19,16,-67,-29,-3,56,66,-30,-14,59,-72,0,-41,-79,-12,16,-26,-32,13,-60,29,7,-14,1,-19,19,59,33,38,81,9,-3,24,-8,-11,-22,44,23,-30,-25,11,-80,-21,-37,-13,-34,38,5,19,32,-33,8,-50,41,-38, 
  /* [71][0][][] */ -37,-25,8,86,11,8,-5,23,-34,52,12,29,-84,79,9,-1,-9,100,-45,-38,57,5,-87,58,-16,14,36,-43,71,-113,-47,-12,-50,46,-9,-35,9,48,1,14,56,-127,42,-4,40,15,41,-12,9,-20,14,3,35,-48,27,56,25,27,29,-51,-53,77,46,-32,-9,30,-20,18,39,0,-11,-33,56,-40,87,69,11,-26,-77,39,14,-1,37,37,-3,-32,-11,-34,-53,23,15,-29,38,-55,69,86,0,-100,14,-37,-47,-18, 
  /* [72][0][][] */ 15,92,-14,39,-5,32,-43,24,-44,-84,-19,8,-14,-51,-22,-43,12,8,-19,0,25,-35,-3,18,-19,-2,14,-14,38,-19,-69,47,2,43,-10,-29,2,2,8,-60,83,-47,-68,-14,19,-42,-102,118,-46,6,-36,-127,38,15,-60,-102,-11,41,-43,-39,-9,-42,116,10,62,60,-11,-28,-58,2,75,2,-13,10,-2,-8,-68,23,-9,-46,-13,62,28,-18,-25,-21,-31,4,-17,10,-8,-2,60,-49,0,-10,-12,22,8,7,78,11, 
  /* [73][0][][] */ 12,-91,-8,11,27,7,34,-19,90,-102,-45,-17,9,-4,-9,31,11,-50,85,-11,9,30,39,-100,43,-17,4,54,-36,-65,-85,94,-13,-13,44,23,-27,4,77,-20,-83,39,110,-15,-25,51,38,87,-24,12,-40,40,-36,27,65,-8,75,76,47,-20,-62,-9,127,-34,-81,96,10,41,46,-58,-49,-6,19,34,33,12,43,-46,49,69,-29,-33,-8,23,18,-73,-49,8,-59,24,-72,-27,4,-89,-28,41,-50,61,70,95,28,12, 
  /* [74][0][][] */ -98,17,42,76,-16,-18,35,45,25,103,-24,-16,-64,-14,-58,-15,-5,16,-54,-83,3,-90,2,-14,-30,67,-54,-57,4,82,-53,14,-16,57,-29,-43,-49,-71,-25,23,34,31,7,-10,-6,118,31,-78,83,-27,-1,45,-17,55,-47,-1,30,58,-37,-32,11,-44,-121,73,-16,127,-3,-4,111,39,-26,2,-9,28,6,47,45,-59,-2,-7,24,-18,34,17,33,27,-14,10,-65,-8,2,25,-2,18,-34,61,3,-10,4,19,-70,59, 
  /* [75][0][][] */ -37,29,-83,5,3,53,-9,-64,11,77,-39,21,-26,50,98,-127,18,0,-10,24,16,11,9,23,5,10,66,-6,56,101,12,25,-49,-108,-48,13,-81,55,-84,20,63,11,-41,17,1,-61,31,5,-72,-78,29,-27,-64,-48,35,-116,-12,-17,8,18,-77,9,8,-91,27,40,-73,-23,-10,-37,-2,65,25,11,14,-9,-22,-21,-46,-38,-54,72,5,30,11,-58,-47,33,-95,-24,-2,80,-1,16,-12,6,39,61,-33,-68,10,-80, 
  /* [76][0][][] */ -18,-11,24,13,-9,-42,-19,-23,41,-51,63,-49,-60,30,11,-22,-53,49,-15,127,31,44,55,60,81,26,-58,39,88,-79,-17,50,21,38,-51,-36,10,-15,-75,26,80,31,-4,-16,-83,21,-1,-49,28,-33,-8,18,12,-63,2,7,41,54,-39,42,-116,27,-41,-47,-40,-68,-109,40,23,-6,-38,106,101,-22,-27,-27,-10,-119,7,-7,-66,-9,-2,-70,-29,-51,35,-81,-22,-2,-31,12,-20,-9,-40,-72,30,-8,-34,-49,14,-33, 
  /* [77][0][][] */ -34,-53,40,-91,15,55,18,-30,-49,39,39,-10,-100,-34,53,-49,-6,-127,-117,83,-11,8,-66,-81,99,-18,76,-55,30,14,59,-50,2,-111,-16,35,-64,44,-15,4,103,38,66,25,39,0,-24,98,46,34,-61,-27,65,-11,-11,92,49,-43,77,6,89,-7,8,31,-17,-42,7,-78,52,-114,29,13,-77,-8,33,-28,12,-49,-70,-1,-31,-120,12,11,-64,-52,26,3,-3,-35,-53,-2,-42,42,76,-33,-27,59,-2,106,-53,23, 
  /* [78][0][][] */ -36,32,-16,-23,85,-30,-16,-59,-26,-42,7,21,-54,-44,0,-26,-44,-21,-2,-127,39,-56,31,-21,-75,31,70,47,27,-40,15,-60,14,32,8,-36,-14,8,-89,-87,-33,-10,-8,-1,7,106,-17,32,32,-14,10,-25,54,-77,-41,-17,-47,-15,42,21,12,-8,33,85,-43,20,-36,47,-20,-6,-17,49,3,-22,42,-68,30,33,-6,9,-15,-48,10,-38,-32,-40,-32,-13,28,-42,-16,76,-38,57,-16,24,-11,-40,-21,-35,0,-19, 
  /* [79][0][][] */ -76,45,12,-18,12,-44,1,-42,-65,3,67,4,22,-24,6,78,29,50,33,-64,37,37,-51,-21,-42,-34,-6,10,-1,-9,-12,-51,-47,53,-13,1,-30,-80,-67,-38,28,59,-9,8,-73,6,29,21,-105,8,53,15,-6,-30,10,-55,22,-8,-1,29,41,-16,-21,2,-15,26,-4,-66,-51,-1,-35,-19,15,-26,69,47,60,40,5,-32,-99,52,-17,14,-12,9,-57,-33,-14,-66,1,-27,55,59,15,-127,-50,-21,6,25,-106,1, 
  /* [80][0][][] */ -1,-31,28,-49,-38,0,-38,-62,29,33,-18,36,-17,26,-59,-21,2,30,-4,-36,127,-3,-73,-18,6,0,-23,-8,19,2,39,5,1,73,-4,14,-51,-42,-2,-48,-18,-30,59,-54,71,40,19,-9,5,0,-28,38,-3,4,-84,19,-39,43,-67,-52,-31,16,8,-7,10,83,73,13,18,33,-53,-19,13,4,-39,28,6,0,-1,-74,-7,-20,-9,2,9,-30,-56,28,79,15,69,37,-18,-27,-7,-11,-29,0,7,-40,12,-17, 
  /* [81][0][][] */ -18,31,55,33,-23,-93,-17,2,-90,60,-8,-41,0,47,-52,5,-36,-7,-56,24,-11,27,60,29,-1,127,-52,-26,-37,4,48,-64,7,67,-31,-10,-23,14,31,-94,39,59,-102,-18,13,-23,-3,-6,-38,12,6,-50,18,2,40,77,-32,39,-16,25,30,8,15,76,-51,4,-71,2,17,-6,-22,100,65,6,7,-20,55,-19,82,51,-16,5,53,47,61,61,-35,-16,4,-42,8,20,18,14,-12,57,62,47,44,-41,46,-15, 
  /* [82][0][][] */ -33,39,32,-22,-11,20,-24,33,-37,41,27,45,59,54,25,-33,53,9,4,21,32,18,19,11,-16,-72,44,12,-15,-4,-21,-23,20,-14,39,-44,-1,24,48,-127,92,-39,36,1,-17,-49,2,11,25,-46,9,1,-52,-56,-29,40,-1,-37,-15,26,-6,-14,31,-11,-1,15,-61,-12,21,45,-26,33,126,8,23,-23,-54,-6,14,-7,-29,-88,-51,17,13,-43,-2,25,44,33,19,-6,-26,50,8,-25,26,0,46,0,-4,17, 
  /* [83][0][][] */ -8,12,-75,21,-17,-1,3,-46,4,-53,-57,-36,6,42,23,33,-72,-37,-41,-14,-22,17,127,-14,29,-46,14,-58,-29,62,-26,29,23,21,-5,34,-33,1,3,-24,15,-8,11,12,16,-2,-18,27,-23,46,80,47,-10,87,18,-18,-55,-94,7,42,-62,-15,-19,25,17,-45,-19,-23,-7,9,-2,4,11,37,-23,-11,-9,6,-35,-2,34,20,11,-40,-15,36,78,-27,-68,-1,32,15,57,52,19,-13,30,69,14,-28,-15,21, 
  /* [84][0][][] */ -44,-1,65,8,19,-22,-57,37,-55,13,26,-9,-19,44,21,105,-17,43,65,-127,1,-35,49,28,-1,-52,-16,2,-36,26,-17,-51,-42,20,38,-40,0,-7,-30,-31,28,26,20,-44,-33,-11,-73,42,35,22,1,11,16,4,-55,13,21,64,-18,-23,38,2,52,-9,0,70,9,40,-32,24,4,-48,37,4,-24,-45,-32,26,-14,-8,28,-35,-3,57,49,-125,19,16,-18,-6,-30,-6,11,-38,43,63,22,-54,-45,8,-51,-77, 
  /* [85][0][][] */ -49,22,-25,17,38,-19,47,11,-75,20,3,-55,-45,-3,-71,-70,6,-54,-28,-9,66,-1,-19,60,127,47,-38,76,-60,4,46,8,-32,-114,31,-7,32,-77,-46,-53,30,-7,14,-9,-79,85,-65,2,-66,-126,19,12,-39,-63,-9,3,34,10,-78,41,-84,11,16,-79,35,-16,-63,32,5,2,31,-19,17,-31,49,-65,43,39,-28,87,-9,15,-31,-8,-37,26,0,1,-66,-1,43,-46,12,29,-14,-12,-24,-34,92,-84,-3,26, 
  /* [86][0][][] */ -17,3,20,-64,5,-14,-37,34,28,-117,-54,-81,-39,-30,62,30,15,-60,18,40,35,127,54,-47,45,84,9,9,-63,0,-38,10,-30,1,-79,-6,3,-29,-5,-66,102,-29,91,-34,-78,3,-38,37,-26,41,-86,31,-49,3,-54,-20,43,6,35,-49,33,43,72,34,26,-16,2,-26,-60,36,45,-66,44,2,-80,2,43,-32,-14,41,-113,36,80,-98,-54,-83,19,35,76,-126,-4,40,86,-26,11,-31,15,-31,23,23,46,-77, 
  /* [87][0][][] */ 28,18,34,-6,43,44,21,-52,19,-39,-11,-38,-27,-26,16,39,42,-57,-17,26,23,-6,-25,-127,14,58,-2,63,1,11,6,63,7,62,0,-8,17,94,50,-23,-1,34,3,22,-1,47,21,-41,-5,43,41,16,-6,-23,-32,27,-43,72,-58,-2,-7,-5,-20,-30,-27,7,0,27,37,59,-22,25,-13,13,-48,-88,-79,-21,24,29,-85,-18,10,-14,-13,4,-7,19,41,11,-31,42,-16,-15,-32,-94,6,-6,3,21,-5,1, 
  /* [88][0][][] */ -51,1,47,52,-32,-23,33,-15,-54,-53,-5,30,-15,-34,-19,-34,78,-100,33,1,12,-44,13,23,-2,82,-85,80,-22,-34,-58,-75,-94,-40,84,-39,-44,2,-44,85,-118,-3,-2,-33,-46,-55,-37,20,-1,-101,88,-72,-12,-33,-16,-24,-25,-36,26,20,-34,-8,-22,-15,42,-16,-41,27,-58,17,-18,44,14,7,23,19,-1,-30,-56,-7,34,9,-127,-20,15,-9,-37,-69,6,-22,-25,-4,-21,-30,43,27,-60,-21,-107,21,-58,72, 
  /* [89][0][][] */ 81,22,-62,31,-15,-46,65,-9,-23,16,-9,40,-34,51,41,-11,-9,-82,46,23,5,-51,15,2,8,-66,3,48,-47,-37,-83,61,-33,65,-7,46,-5,95,-6,-3,-13,17,-90,-79,23,55,15,-15,-31,-60,20,-76,16,-5,79,-40,74,21,44,-42,40,76,-2,-9,-47,-12,21,-77,-48,-4,127,-14,5,12,-4,-2,-30,-73,-30,27,-100,4,53,87,-10,42,-10,-28,-7,8,-22,-1,62,64,41,-27,-9,31,12,7,100,84, 
  /* [90][0][][] */ -38,20,-59,52,-51,20,-7,-16,-76,36,5,-37,11,-36,127,-15,27,-18,-15,-11,56,-6,50,-6,-20,14,-15,25,-31,11,25,-38,39,-107,22,33,28,48,36,-8,48,53,-64,55,-5,54,-49,-71,116,59,-25,-13,44,4,30,29,42,-10,-5,-30,-27,104,-37,-57,27,50,3,5,-35,15,11,5,55,5,-21,37,-21,-21,81,-61,-71,-27,-14,6,52,23,14,-28,39,-23,-19,53,40,81,92,-1,34,32,57,-24,38,-51, 
  /* [91][0][][] */ -13,-11,-14,35,-46,22,-23,-16,23,-23,-64,-16,-63,-5,1,-11,-5,-19,36,-45,-127,-18,-16,40,-3,27,-47,-20,14,-27,-33,-36,-22,48,34,2,8,26,-20,37,-6,-1,-58,-13,18,72,11,24,40,-6,17,17,-54,99,-74,-48,44,-10,13,-68,28,6,15,12,21,-3,-19,-10,-40,-26,-9,25,-80,97,-12,18,75,10,-76,-38,-21,0,26,-43,19,41,-40,-1,-78,6,24,-4,-1,-8,7,68,9,13,4,39,25,-65, 
  /* [92][0][][] */ -14,110,20,30,-48,-9,-40,20,-21,-48,51,-44,2,40,-14,-11,38,12,40,-38,-37,-34,29,5,68,-9,19,13,12,-15,-48,-7,-12,20,3,26,-8,-58,4,26,-28,9,-14,-18,-43,27,15,14,23,-9,11,-69,43,-25,-28,20,51,-7,40,16,-34,-19,-1,7,-87,11,19,-33,33,-15,18,-61,-15,-14,31,127,-33,-40,20,-16,-32,-29,30,22,-16,-43,55,-35,4,4,26,5,9,-32,9,21,-6,18,-12,17,23,-8, 
  /* [93][0][][] */ 39,-9,-25,-77,-60,0,-53,7,-38,24,-39,-62,-13,-32,50,-17,-16,-23,70,13,52,-25,56,-42,-41,-40,24,-12,0,-11,32,-10,-15,-38,0,-27,24,24,34,63,-55,26,-40,-61,12,83,-79,29,36,-10,-49,38,-55,39,24,-34,-95,57,-49,5,16,-4,-4,-111,-50,-58,-23,54,21,23,5,80,-64,17,9,25,32,127,9,5,14,-63,-2,8,-67,28,27,8,28,23,-20,-2,50,51,27,35,-60,-73,-12,-1,-9,20, 
  /* [94][0][][] */ 6,-3,21,-1,-76,-25,-91,16,-18,-86,24,-14,-10,4,76,-49,15,-55,-12,-46,49,-3,-98,-27,-5,-12,-48,12,-65,98,-29,-15,-22,34,-13,47,-7,0,-29,-97,-18,-102,-78,-5,-6,-32,-86,47,7,0,37,32,-15,-20,-3,9,-1,-32,27,-31,39,127,71,42,-16,29,28,-59,-56,63,-51,29,17,-10,-20,-42,-5,37,62,2,-4,27,-53,-2,-15,92,-20,-2,-44,58,-23,22,3,-29,49,17,65,-21,66,-67,4,37, 
  /* [95][0][][] */ -48,36,-52,-37,17,28,-21,20,0,-36,13,36,-3,-2,5,20,-3,-19,20,-41,22,41,27,19,15,-1,32,-18,-36,-16,22,20,7,-8,-43,-19,17,8,7,-11,6,2,19,-22,-29,-32,-12,-23,-27,-72,-43,35,-20,-21,-1,26,23,-30,-11,-50,-127,2,13,-2,-4,-25,10,-13,-47,47,33,15,-37,13,21,38,10,-8,-30,31,-2,-3,-40,14,19,35,-18,-38,0,-26,36,13,-27,-5,1,21,47,-35,-83,45,63,45, 
  /* [96][0][][] */ -70,21,59,-45,41,0,66,50,-53,-46,12,53,50,32,-25,46,109,2,6,27,-19,52,-55,94,-30,12,27,-18,-56,3,115,10,68,-53,-37,43,-5,77,-3,-2,125,-3,-16,-35,-7,1,-10,-20,8,16,-20,53,-8,57,-10,-40,47,66,2,42,-28,24,-60,96,-83,0,-67,-25,-38,-58,-19,17,-25,-108,-62,72,-25,5,-14,22,15,-5,-9,69,48,-1,-30,70,-24,-18,-11,-27,50,44,127,-17,12,11,50,5,4,-1, 
  /* [97][0][][] */ -48,27,-29,-57,-66,41,70,-42,25,-30,-38,-20,-77,-7,21,127,127,-28,-6,-72,-27,14,84,65,75,23,-70,-78,65,-10,32,35,-61,-53,-2,-23,62,-28,-20,69,10,-48,45,14,-41,-58,0,-20,-17,-18,24,59,61,46,47,-59,-75,-7,37,29,12,-75,-10,-85,-16,26,-6,21,33,8,25,28,7,7,6,1,-50,-31,15,3,28,-67,27,12,-15,50,-5,24,-110,-56,-48,26,-22,98,-43,-34,-18,-43,-13,10,29,-105, 
  /* [98][0][][] */ -34,21,-35,32,-31,60,15,-10,127,19,-34,-21,-25,23,38,6,12,-50,-7,-14,-22,35,6,-15,53,45,-5,22,-4,-48,-66,38,-5,-29,-4,21,-28,-38,-12,39,-17,-25,-10,-37,-5,-32,21,-49,-25,62,10,-30,16,-44,-20,-11,53,-26,-21,-50,-4,55,-24,-37,-38,49,-29,13,-10,25,18,10,16,-11,16,2,3,-31,43,4,20,-11,9,14,33,26,45,-32,-19,33,-58,-47,-25,25,-5,-33,0,14,69,11,-32,-43, 
  /* [99][0][][] */ -2,-19,38,-26,-34,-16,68,65,7,1,32,11,-39,31,43,-11,-25,2,-30,-39,14,29,49,6,2,27,-21,15,-48,-49,39,-21,24,11,39,0,71,1,18,-1,45,9,22,-60,12,34,22,-32,-18,44,-12,5,29,-9,-10,-7,15,27,12,47,-21,24,-41,2,-54,27,-90,4,-24,24,39,2,45,15,24,19,-50,-78,-6,8,29,-52,13,13,0,-2,-27,60,13,-53,-78,29,-6,15,-4,40,-15,3,-127,-42,-4,-34, 
  /* [100][0][][] */ -39,19,5,-58,-81,4,46,-14,-57,-35,2,71,12,17,-45,30,-73,3,45,-4,14,-108,-35,-58,22,89,-29,22,-47,68,-13,69,-35,-22,5,-86,51,-117,-57,18,60,-11,24,42,-1,25,-38,21,39,-5,127,33,-13,-50,65,21,-84,5,-77,40,-49,24,17,-71,28,-21,10,-11,62,13,-86,25,-72,-19,20,53,100,19,-54,83,-42,-105,-33,18,20,-49,-50,-71,58,36,-1,31,43,-98,74,-56,101,-57,-9,27,11,-37, 
  /* [101][0][][] */ -48,-52,5,-54,-72,2,-48,-4,16,-11,7,-27,-11,14,29,-27,10,49,-60,-31,-20,15,-35,-127,-29,27,24,37,-13,-36,14,48,20,31,13,-30,21,92,-21,49,31,-7,51,-17,-7,-2,-11,-3,-32,-7,16,23,30,20,-1,14,-26,-27,-45,40,-7,-39,-27,28,-32,-25,-11,28,-15,-31,-8,-22,-10,-58,-7,-74,8,8,-30,5,70,20,-28,-11,-32,-11,61,1,-1,42,-6,44,-5,20,20,67,12,-16,10,13,-11,-82, 
};
const TfArray<4, int> tensor_dimension8 = { 4, { 102,1,1,102 } };
const TfArray<102, float> quant8_scale = { 102, { 0.011943792924284935, 0.0092203468084335327, 0.010735479183495045, 0.0097128134220838547, 0.014052099548280239, 0.010394087061285973, 0.012174049392342567, 0.0084982346743345261, 0.0084697036072611809, 0.0091926967725157738, 0.011752735823392868, 0.014130044728517532, 0.010943190194666386, 0.01224132813513279, 0.0099762100726366043, 0.011042935773730278, 0.0093777719885110855, 0.013737678527832031, 0.010848087258636951, 0.0085321525111794472, 0.0093097677454352379, 0.011928960680961609, 0.01153735164552927, 0.016024995595216751, 0.0098869744688272476, 0.0089172152802348137, 0.013121756725013256, 0.01267720852047205, 0.0099096810445189476, 0.0093447938561439514, 0.011056921444833279, 0.013847795315086842, 0.014175920747220516, 0.012123686261475086, 0.014332270249724388, 0.009846273809671402, 0.011967168189585209, 0.0089757209643721581, 0.009938322938978672, 0.010349408723413944, 0.011105605401098728, 0.0091758258640766144, 0.012514453381299973, 0.011682251468300819, 0.0079585285857319832, 0.0095364740118384361, 0.0095944320783019066, 0.012879369780421257, 0.012308797799050808, 0.015441234223544598, 0.011564123444259167, 0.014846674166619778, 0.010967954061925411, 0.0082889264449477196, 0.016400702297687531, 0.012049280107021332, 0.017591753974556923, 0.009861065074801445, 0.015393529087305069, 0.011097651906311512, 0.010390454903244972, 0.01412844005972147, 0.0094425296410918236, 0.0096576856449246407, 0.012686045840382576, 0.010712596587836742, 0.010512443259358406, 0.012300333008170128, 0.011923934333026409, 0.0080722356215119362, 0.012678938917815685, 0.010333348996937275, 0.014935335144400597, 0.0085754347965121269, 0.011471020057797432, 0.0094271423295140266, 0.010978722013533115, 0.0090561080724000931, 0.013134168460965157, 0.012936171144247055, 0.013337505981326103, 0.0084354979917407036, 0.013022240251302719, 0.012881625443696976, 0.013941369019448757, 0.010042146779596806, 0.010563968680799007, 0.011473589576780796, 0.010158780962228775, 0.010504617355763912, 0.011953872628509998, 0.012256855145096779, 0.013258099555969238, 0.012506047263741493, 0.013555446639657021, 0.017272556200623512, 0.011504705063998699, 0.01231727097183466, 0.014045169577002525, 0.013001990504562855, 0.010090531781315804, 0.012298674322664738, } };
const TfArray<102, int> quant8_zero = { 102, { 0,0,0,0,0,0,0,0,0,0,0,0,0,0,0,0,0,0,0,0,0,0,0,0,0,0,0,0,0,0,0,0,0,0,0,0,0,0,0,0,0,0,0,0,0,0,0,0,0,0,0,0,0,0,0,0,0,0,0,0,0,0,0,0,0,0,0,0,0,0,0,0,0,0,0,0,0,0,0,0,0,0,0,0,0,0,0,0,0,0,0,0,0,0,0,0,0,0,0,0,0,0 } };
const TfLiteAffineQuantization quant8 = { (TfLiteFloatArray*)&quant8_scale, (TfLiteIntArray*)&quant8_zero, 0 };
const ALIGN(16) int32_t tensor_data9[102] = { 17541, 17496, 25660, -4830, -589, 21284, 21418, 23120, -5300, 10894, -911, 15954, -428, -1769, -3923, -438, -353, -1205, 62, 14029, 19543, 17576, 21087, 23503, 326, -5642, 17922, 14801, 21650, 13724, -3584, -585, -7096, 30064, 14319, 119, -367, -189, -235, 26010, -442, -390, 18678, 15438, 16326, 15698, 16726, -266, 290, 19996, 24049, 14352, 4301, -1103, 17738, 19551, 20954, 20643, -228, -481, 16422, -632, -127, 25843, 21017, 20782, -5461, -150, 18042, 12658, -1088, -1087, -2823, -510, -1593, 16545, 37, 20705, 27876, 1396, 28400, 19836, -2683, -331, 17734, 76, 14068, -1015, -555, -107, 9518, -6748, -1786, -316, -659, -8834, -9102, 13489, 24211, 16331, 19298, -66, };
const TfArray<1, int> tensor_dimension9 = { 1, { 102 } };
const TfArray<102, float> quant9_scale = { 102, { 8.5945452156011015e-05, 0.00013010310067329556, 9.4885443104431033e-05, 0.00014720315812155604, 6.8000321334693581e-05, 8.1446749391034245e-05, 0.00012171093112556264, 9.9484765087254345e-05, 7.6551397796720266e-05, 0.00013547104026656598, 0.00020877089991699904, 0.00012604723451659083, 6.5710788476280868e-05, 0.00015117792645469308, 0.00011125087621621788, 7.7661687100771815e-05, 0.00010885901428991929, 0.00010029838449554518, 0.00011535899102455005, 0.00013868423411622643, 0.00014839861250948161, 0.00014462121180258691, 0.00015870212519075722, 9.41083999350667e-05, 7.9923462180886418e-05, 0.0001455811143387109, 0.00011991403152933344, 0.00013998155191075057, 0.00012255637557245791, 0.00017897288489621133, 7.5181938882451504e-05, 6.1190228734631091e-05, 0.00011733278370229527, 7.8655015386175364e-05, 0.00017643725732341409, 0.00027608248637989163, 0.00017920255777426064, 7.3148868978023529e-05, 0.0001126456045312807, 8.2288366684224457e-05, 6.8020795879419893e-05, 8.4397899627219886e-05, 0.0001436848979210481, 0.00016004013014025986, 0.00016606204735580832, 0.00019339352729730308, 9.6830990514717996e-05, 0.00013535784091800451, 7.6127573265694082e-05, 0.00013824534835293889, 0.00010859586473088712, 8.5157313151285052e-05, 0.00045002857223153114, 6.5601379901636392e-05, 0.00015268809511326253, 9.7365882538724691e-05, 0.00011608025670284405, 0.00017216557171195745, 9.1074594820383936e-05, 0.00014362127694766968, 0.00020370040147099644, 0.00020530122856143862, 0.00014462381659541279, 0.00010312925587641075, 0.00013542949454858899, 9.2809867055620998e-05, 5.818522913614288e-05, 0.00011121630086563528, 7.1674563514534384e-05, 0.00011206833005417138, 0.00015204238297883421, 0.00012318577500991523, 6.225636025192216e-05, 0.00019567414710763842, 0.00012329597666393965, 9.635380411054939e-05, 0.0001030038547469303, 0.000136839400511235, 8.1376223533879966e-05, 0.00017976282106246799, 8.6901185568422079e-05, 8.7083084508776665e-05, 9.4357885245699435e-05, 7.8829143603798002e-05, 0.00013421129551716149, 6.6263564804103225e-05, 0.00012394206714816391, 0.00010715336247812957, 6.8168839788995683e-05, 7.2877890488598496e-05, 0.00025954254670068622, 0.00011274329881416634, 0.00019530720601323992, 0.00012939628504682332, 0.0001918496418511495, 0.00016528138075955212, 8.709297253517434e-05, 0.00012455896649044007, 6.9400070060510188e-05, 0.00011474522762000561, 0.00015254778554663062, 6.469530489994213e-05, } };
const TfArray<102, int> quant9_zero = { 102, { 0,0,0,0,0,0,0,0,0,0,0,0,0,0,0,0,0,0,0,0,0,0,0,0,0,0,0,0,0,0,0,0,0,0,0,0,0,0,0,0,0,0,0,0,0,0,0,0,0,0,0,0,0,0,0,0,0,0,0,0,0,0,0,0,0,0,0,0,0,0,0,0,0,0,0,0,0,0,0,0,0,0,0,0,0,0,0,0,0,0,0,0,0,0,0,0,0,0,0,0,0,0 } };
const TfLiteAffineQuantization quant9 = { (TfLiteFloatArray*)&quant9_scale, (TfLiteIntArray*)&quant9_zero, 0 };
const ALIGN(16) int8_t tensor_data10[1*3*3*102] = { 
  /* [0][0][][] */ -127,-49,-118,57,51,-45,-99,-121,40,-109,62,-60,40,-22,10,43,46,-61,64,-83,-117,-110,-66,-28,42,54,-52,-93,-43,7,16,-7,37,-70,-127,39,44,55,-123,-66,-34,15,-99,-60,-64,-31,-32,-127,-14,-127,-87,-127,-23,70,-31,-90,-50,-21,17,43,-73,-52,63,-22,-102,-115,82,-62,-125,-127,31,88,45,52,105,-71,8,-119,10,58,-66,-97,13,-102,-110,55,-99,29,56,38,-23,-84,5,71,73,81,122,-64,-111,-127,-127,72, -81,-57,-127,127,127,-52,-103,-104,127,-88,13,-31,73,87,74,42,127,81,127,-107,-127,-127,-127,-98,69,44,-95,-61,-127,-127,92,117,67,-125,-102,22,127,127,34,-102,83,-12,-125,-125,-127,-127,-34,41,47,-117,-127,-78,-127,127,-85,-50,-60,-117,81,58,-122,41,64,-62,-91,-97,127,95,-93,-70,37,83,117,21,124,-69,59,-127,-71,65,-83,-121,28,127,-84,101,-39,6,127,95,-13,14,38,109,28,80,48,-127,-127,-112,-80,66, -98,-49,-120,38,72,-50,-106,-127,19,-127,-26,-72,43,-35,8,49,-2,-69,36,-50,-123,-101,-53,-27,40,39,-38,-77,-77,4,-51,-49,51,-84,-110,40,50,47,-76,-82,9,0,-107,-48,-75,-34,-26,87,0,-109,-88,-114,-24,80,-40,-65,-52,-22,53,-127,-74,23,-127,-13,-99,-127,49,23,-127,-98,11,76,48,-127,100,-48,-127,-112,5,66,-82,-75,-94,36,-83,56,-127,11,58,35,-37,-88,7,62,-127,94,99,-38,-92,-106,-114,46, 
  /* [0][1][][] */ -97,-127,-80,94,92,-64,-127,-37,118,-56,-84,-56,70,83,71,66,76,68,86,-127,-86,-123,-34,-111,94,16,-92,-127,-58,-24,102,123,63,-127,-51,47,-25,101,64,-91,127,76,-101,-74,-73,-57,-84,-111,98,-120,-80,-92,-9,71,-73,-106,-72,-45,96,57,-68,-63,97,-87,-127,-64,123,100,-97,-76,69,44,44,42,-12,-98,82,-71,-84,38,-121,-123,36,107,-29,55,-68,32,79,48,-29,78,-12,-19,38,52,40,-44,-81,-101,-116,84, -60,-61,-123,57,104,-88,-61,-51,117,-30,127,-66,127,127,127,115,47,127,75,-56,-104,-108,-116,-75,127,127,-112,-69,-107,-103,127,111,82,-79,-106,-36,-54,126,112,-104,84,97,-127,-127,-115,-98,-127,75,122,-98,-107,-33,-60,119,-127,-96,-113,-127,73,59,-127,36,27,-77,-92,-22,92,109,-61,-27,127,77,127,60,76,-39,71,-68,-127,-90,-103,-115,69,89,-122,127,-41,127,115,127,-127,84,127,127,33,-2,127,-113,-104,-48,-47,127, -79,-98,-67,87,69,-66,-106,-41,82,-73,40,-64,81,84,48,39,127,79,100,-122,-87,-111,-53,-98,92,29,-83,-115,-57,-14,80,127,61,-120,-51,-127,-11,109,87,-121,98,86,-79,-66,-67,-48,-98,74,106,-109,-70,-89,-11,65,-61,-114,-63,-73,81,61,-78,54,-119,-89,-108,-71,123,67,-91,-73,70,54,66,48,-3,-124,109,-79,-86,52,-127,-127,55,90,-26,95,-84,12,78,56,-43,77,-9,22,-35,58,5,-80,-85,-88,-81,91, 
  /* [0][2][][] */ -40,-76,-52,36,-51,-115,-57,-123,-12,-68,98,-127,41,-69,-45,76,25,-3,-55,-104,-50,6,-22,-84,22,35,-70,-38,-20,7,40,102,78,-41,34,63,-20,30,-38,-88,26,28,-35,30,-50,0,-41,-108,20,-42,-22,-123,4,-71,-83,-127,-69,-27,-91,25,-38,-127,37,-80,-36,-127,23,-127,-71,-61,-121,-127,14,-75,-49,-127,48,-69,-114,4,-71,-112,72,31,-127,39,-72,61,-22,3,4,72,41,-64,36,127,33,-39,-32,-3,-76,69, -91,-97,-75,85,17,-127,-62,-111,82,-43,-3,-96,113,67,-37,127,70,83,102,-98,-9,-15,-54,-127,57,28,-127,-35,-35,-50,105,125,127,-46,0,-32,-111,89,127,-127,91,127,-93,-45,-44,-27,-64,52,127,1,-66,-60,39,99,-62,-103,-127,-111,127,70,-67,40,44,-127,-89,-94,102,115,-76,-62,-14,-31,115,-63,-111,-74,92,-36,-124,-127,-87,-127,127,97,-104,59,-27,66,63,32,-106,127,59,-87,41,3,63,-31,-125,-40,9,91, -31,-61,-36,39,-32,-111,-82,-105,-4,-68,-76,-91,25,-57,-41,81,-20,9,-69,-68,-53,10,-6,-52,30,12,-69,-35,17,-10,48,74,27,-47,23,-33,-45,16,6,-110,56,37,-40,19,-50,-8,-56,55,35,-58,-30,-98,-2,-7,-81,-111,-89,-16,-38,-5,-51,42,-86,-62,-32,-123,-3,30,-83,-47,-87,-126,29,-81,-127,-59,28,-32,-112,3,-80,-97,70,64,-93,25,-86,72,-33,22,16,69,23,-63,-79,75,41,-23,-38,-3,-72,81, 
};
const TfArray<4, int> tensor_dimension10 = { 4, { 1,3,3,102 } };
const TfArray<102, float> quant10_scale = { 102, { 0.00424573989585042, 0.0064271450974047184, 0.0046873791143298149, 0.0072718947194516659, 0.0033592430409044027, 0.0040235021151602268, 0.0060125687159597874, 0.0049145873636007309, 0.0037816697731614113, 0.0066923238337039948, 0.010313366539776325, 0.0062267836183309555, 0.0032461392693221569, 0.0074682501144707203, 0.005495837889611721, 0.003836518619209528, 0.005377679131925106, 0.0049547804519534111, 0.0056987805292010307, 0.0068510565906763077, 0.007330950815230608, 0.0071443459019064903, 0.007839948870241642, 0.0046489927917718887, 0.0039482512511312962, 0.007191765122115612, 0.005923801101744175, 0.0069151450879871845, 0.0060543343424797058, 0.0088413320481777191, 0.003714017802849412, 0.0030228218529373407, 0.0057962867431342602, 0.0038855893071740866, 0.0087160710245370865, 0.013638585805892944, 0.0088526783511042595, 0.0036135835107415915, 0.0055647380650043488, 0.004065078217536211, 0.0033602546900510788, 0.0041692899540066719, 0.0070980917662382126, 0.0079060466960072517, 0.0082035316154360771, 0.0095537174493074417, 0.0047834897413849831, 0.0066867317073047161, 0.0037607324775308371, 0.0068293754011392593, 0.0053646792657673359, 0.0042068054899573326, 0.022231591865420341, 0.003240734338760376, 0.0075428527779877186, 0.0048099136911332607, 0.0057344110682606697, 0.0085050482302904129, 0.0044991215690970421, 0.0070949490182101727, 0.010062881745398045, 0.010141963139176369, 0.0071444744244217873, 0.0050946264527738094, 0.0066902716644108295, 0.0045848446898162365, 0.0028743736911565065, 0.0054941298440098763, 0.0035407522227615118, 0.0055362205021083355, 0.0075109549798071384, 0.0060854265466332436, 0.0030754890758544207, 0.0096663814038038254, 0.0060908705927431583, 0.0047599165700376034, 0.0050884317606687546, 0.0067599215544760227, 0.0040200180374085903, 0.0088803553953766823, 0.0042929532937705517, 0.0043019391596317291, 0.0046613174490630627, 0.0038941912353038788, 0.0066300919279456139, 0.0032734465785324574, 0.0061227874830365181, 0.0052934191189706326, 0.0033675679005682468, 0.0036001971457153559, 0.012821505777537823, 0.0055695641785860062, 0.0096482541412115097, 0.0063922284170985222, 0.0094774495810270309, 0.0081649664789438248, 0.0043024276383221149, 0.0061532626859843731, 0.0034283914137631655, 0.0056684603914618492, 0.0075359218753874302, 0.0031959740445017815, } };
const TfArray<102, int> quant10_zero = { 102, { 0,0,0,0,0,0,0,0,0,0,0,0,0,0,0,0,0,0,0,0,0,0,0,0,0,0,0,0,0,0,0,0,0,0,0,0,0,0,0,0,0,0,0,0,0,0,0,0,0,0,0,0,0,0,0,0,0,0,0,0,0,0,0,0,0,0,0,0,0,0,0,0,0,0,0,0,0,0,0,0,0,0,0,0,0,0,0,0,0,0,0,0,0,0,0,0,0,0,0,0,0,0 } };
const TfLiteAffineQuantization quant10 = { (TfLiteFloatArray*)&quant10_scale, (TfLiteIntArray*)&quant10_zero, 3 };
const ALIGN(16) int32_t tensor_data11[102] = { 46397, 20441, 31441, 31347, 8083, 9355, -1947, 9960, 4356, 4535, -27772, 23521, 9635, 47333, -16708, 4052, 10316, -16366, 26048, -25832, 12420, -9907, -1354, 17161, 179, -11946, 2962, -24450, 28903, 13354, -19953, -34595, 19134, 33142, -3892, 6970, -22496, 199, 13747, 17636, -300, -1196, 10285, 10577, -13247, 25806, 1998, -4786, 24198, -6428, 16039, -7529, 42897, -16650, 30228, 7986, 6513, 10546, -34521, -20216, 2959, -493, -7404, 6830, -10220, -7662, -2007, -13917, 12511, 10322, 26887, -24852, 9310, -2198, 680, -7033, -8753, -7620, 4346, 742, 20101, 26846, 7909, -12412, -18818, -17949, 16256, 45993, 4808, -22902, -30536, 30704, -25309, 14024, -13631, -24207, -24556, 3604, -13823, 4800, 7223, 14407, };
const TfArray<1, int> tensor_dimension11 = { 1, { 102 } };
const TfArray<102, float> quant11_scale = { 102, { 5.6439792388118804e-05, 4.893698132946156e-05, 5.5857370170997456e-05, 6.0967748140683398e-05, 7.4482231866568327e-05, 5.7030832977034152e-05, 6.2044528021942824e-05, 7.954403554322198e-05, 8.0262972915079445e-05, 4.8324116505682468e-05, 8.5852261690888554e-05, 5.026693906984292e-05, 9.0655295934993774e-05, 6.6251173848286271e-05, 8.2394522905815393e-05, 7.4331168434582651e-05, 9.0741676103789359e-05, 7.8547513112425804e-05, 6.2851941038388759e-05, 4.4957650970900431e-05, 4.8606729251332581e-05, 4.7112225729506463e-05, 6.0692469560308382e-05, 6.37585180811584e-05, 6.3806779508013278e-05, 6.2184073613025248e-05, 7.5870542787015438e-05, 5.6898341426858678e-05, 5.0236212700838223e-05, 3.4038679586956277e-05, 7.0682137447874993e-05, 0.00010888981341850013, 8.0273595813196152e-05, 5.0851111154770479e-05, 4.9298836529487744e-05, 8.7278102000709623e-05, 6.1486753111239523e-05, 7.3604576755315065e-05, 8.204004552680999e-05, 6.2074774177744985e-05, 6.783161370549351e-05, 0.00012079693260602653, 5.2307463192846626e-05, 4.0003971662372351e-05, 3.8974339986452833e-05, 4.0983533835969865e-05, 7.7710814366582781e-05, 6.9535664806608111e-05, 7.9255543823819607e-05, 4.6974673750810325e-05, 5.2865969337290153e-05, 6.5266147430520505e-05, 4.7032302973093465e-05, 0.00011573468509595841, 5.5576882004970685e-05, 5.5152813729364425e-05, 5.0733826356008649e-05, 4.8242851335089654e-05, 9.7801792435348034e-05, 0.00010510923311812803, 3.7201501982053742e-05, 7.7907679951749742e-05, 8.2262384239584208e-05, 4.0136172174243256e-05, 5.761588181485422e-05, 0.00013074031448923051, 8.4233506640885025e-05, 0.0001153389603132382, 7.6693504524882883e-05, 7.400777394650504e-05, 8.2557846326380968e-05, 9.8646727565210313e-05, 9.2552640126086771e-05, 8.6036518041510135e-05, 5.65284353797324e-05, 7.9954028478823602e-05, 8.9200410002376884e-05, 3.9898932300275192e-05, 7.0663445512764156e-05, 8.8465974840801209e-05, 7.0509988290723413e-05, 4.5146407501306385e-05, 8.0814526882022619e-05, 9.5748036983422935e-05, 5.1063325372524559e-05, 9.9815144494641572e-05, 6.2740982684772462e-05, 7.2686139901634306e-05, 5.6588651204947382e-05, 0.00010500257485546172, 4.569317025016062e-05, 6.9763387728016824e-05, 7.3434508522041142e-05, 0.00012107723887311295, 8.3860737504437566e-05, 8.1936945207417011e-05, 7.1586720878258348e-05, 6.1359416577033699e-05, 7.0829453761689365e-05, 8.5578278230968863e-05, 4.6160876081557944e-05, 6.8307825131341815e-05, } };
const TfArray<102, int> quant11_zero = { 102, { 0,0,0,0,0,0,0,0,0,0,0,0,0,0,0,0,0,0,0,0,0,0,0,0,0,0,0,0,0,0,0,0,0,0,0,0,0,0,0,0,0,0,0,0,0,0,0,0,0,0,0,0,0,0,0,0,0,0,0,0,0,0,0,0,0,0,0,0,0,0,0,0,0,0,0,0,0,0,0,0,0,0,0,0,0,0,0,0,0,0,0,0,0,0,0,0,0,0,0,0,0,0 } };
const TfLiteAffineQuantization quant11 = { (TfLiteFloatArray*)&quant11_scale, (TfLiteIntArray*)&quant11_zero, 0 };
const ALIGN(16) int8_t tensor_data12[102*1*1*51] = { 
  /* [0][0][][] */ 83,-56,127,1,-8,-43,-44,2,-71,-26,24,-98,11,12,-28,28,43,-104,-14,-23,25,115,51,-102,20,63,-82,-31,38,-66,-55,-53,-17,-76,-47,-102,-50,61,-85,-33,68,-88,49,-2,76,-36,-70,-82,-43,-42,61, 
  /* [1][0][][] */ -37,-21,89,-31,-62,-10,11,20,72,22,-30,-16,-22,-45,-25,-89,-45,-29,27,33,15,35,55,-79,-27,49,-4,86,-108,15,-18,27,-99,-11,19,-25,-20,-8,-25,-1,127,-18,78,-13,-25,39,-62,-5,43,40,1, 
  /* [2][0][][] */ -48,2,-20,-62,45,-26,-12,-27,-41,-17,-70,-70,-3,35,6,-7,-35,-53,-40,-13,-7,127,4,-1,-72,27,-43,-101,-26,-24,-17,24,67,58,28,14,8,9,32,27,75,48,-79,20,6,49,-2,6,-84,31,-67, 
  /* [3][0][][] */ -51,76,4,-35,-127,-35,20,-66,-31,46,-16,63,-8,-22,-3,-79,-12,12,27,-16,-12,-20,-41,-18,-79,-49,-120,-4,32,-19,-7,31,55,73,27,-23,55,32,-59,16,-9,-33,-22,6,44,-4,-29,11,-31,9,16, 
  /* [4][0][][] */ -119,62,41,-50,-30,-44,-8,21,-48,-19,23,76,40,38,73,-44,9,11,83,127,13,67,-8,-91,-110,-80,-7,-69,34,-72,49,-105,-20,30,25,19,-20,-85,0,35,29,80,-77,-25,-14,5,-65,58,-28,-49,-108, 
  /* [5][0][][] */ 8,120,15,-32,83,103,50,-30,-95,115,41,-109,-53,-14,-73,-60,74,44,-67,120,44,-27,40,-15,-34,-50,62,-88,-95,-52,-6,25,9,-54,114,62,14,65,-3,-7,29,17,83,-31,-25,-105,-11,-60,17,-127,-122, 
  /* [6][0][][] */ -2,-3,12,-49,20,2,17,35,55,53,-15,2,-32,33,14,51,-23,37,-53,-40,1,24,-16,23,43,1,5,-15,-28,-54,127,66,-18,4,-44,22,7,-41,12,-47,-28,-37,-17,33,7,12,-40,6,54,67,-110, 
  /* [7][0][][] */ 2,-20,18,-55,18,13,1,127,14,-61,-44,-54,-94,-87,-9,-8,-32,40,-27,6,-65,50,-7,-8,-49,-40,9,55,5,-8,55,-1,9,7,25,15,70,-36,2,0,99,-10,-17,2,-13,-50,37,-31,-30,43,59, 
  /* [8][0][][] */ 25,12,34,55,-16,-5,-22,-23,19,32,-33,-19,-15,-3,5,39,-35,58,5,50,29,-13,10,-34,-24,7,-34,-18,-127,-18,-2,60,-73,23,18,-58,-39,-14,10,12,32,12,19,0,26,52,-23,-22,40,20,-3, 
  /* [9][0][][] */ 82,-48,13,-28,-9,-17,71,-116,43,68,-77,19,-48,100,-100,-29,33,-12,-69,95,-63,-27,-54,55,-62,-46,-94,-27,30,-7,29,9,-5,34,26,-69,-7,-2,68,-40,-70,91,-21,-15,37,88,127,-2,55,69,51, 
  /* [10][0][][] */ -57,127,60,-44,-13,-30,-8,34,61,45,-19,-68,46,38,34,27,10,58,-50,11,-10,-98,-10,-28,97,-21,43,-5,-22,60,-2,-47,27,56,-28,108,46,-98,-26,-13,3,-36,40,-17,17,-44,-10,117,73,32,-34, 
  /* [11][0][][] */ -20,-24,-88,-60,70,22,50,-6,80,127,-81,-53,-31,-64,-24,-35,20,77,-40,69,73,52,-53,-8,63,2,50,-36,17,-101,-27,23,-45,17,-85,-59,-32,53,40,-43,-106,-101,12,-80,-30,-87,-8,40,5,-4,4, 
  /* [12][0][][] */ 20,-36,32,15,35,-69,-96,-15,19,-78,28,54,71,78,-28,14,13,50,22,115,-85,60,34,32,13,-15,-53,-15,16,-7,71,-62,-49,-85,-40,-15,86,-1,-17,-27,-35,-127,-18,4,-16,-17,-13,-56,9,-66,33, 
  /* [13][0][][] */ -87,-77,-69,-94,88,-28,-41,-25,-22,33,-14,-40,-23,-125,-59,-45,-8,-86,54,-32,-35,1,-40,-38,-9,75,-127,-109,-1,-21,57,10,16,80,-14,-49,-46,12,-51,59,34,-66,25,-38,-9,65,-38,27,33,-2,-89, 
  /* [14][0][][] */ 48,-61,-35,-6,-3,0,-31,-70,-33,-5,30,18,-14,39,-5,-29,1,127,50,9,59,57,-95,-64,100,-32,-41,21,-2,-23,11,7,18,34,-56,30,-8,-9,16,47,-7,-23,64,-14,3,-23,38,77,28,11,3, 
  /* [15][0][][] */ 2,61,16,-127,41,11,-46,6,-70,-54,3,-2,0,-24,25,-60,-28,-21,54,86,10,71,-5,-11,-62,104,-22,-67,37,66,35,-1,-57,90,-55,-47,11,57,81,18,11,-28,54,-20,-48,-65,-71,15,32,-7,42, 
  /* [16][0][][] */ -6,64,-10,29,-26,14,-94,-21,34,-127,-30,1,-47,-63,35,-30,-8,33,5,117,-61,9,5,-51,-58,-7,29,6,-86,-6,-39,24,-31,2,15,3,-19,33,-31,-10,-81,63,114,-61,22,44,1,54,-64,21,-8, 
  /* [17][0][][] */ -8,-39,-4,127,68,-51,98,26,72,12,-90,8,33,3,-40,-36,9,-64,-14,72,-2,-44,24,-30,40,78,-39,-41,-47,-37,53,-80,73,-46,79,-9,-7,-8,23,-51,13,0,26,30,24,-69,-28,122,21,37,-43, 
  /* [18][0][][] */ -46,88,11,43,-17,60,-88,45,8,111,-127,-27,-27,0,26,28,54,-42,22,-92,-26,1,-15,-29,-52,-34,23,-23,-124,-13,-85,-45,-52,20,12,-52,-83,98,-45,6,53,-12,40,30,-21,7,9,-71,-73,-47,31, 
  /* [19][0][][] */ 37,-26,-42,26,21,-3,-40,5,-23,16,105,-5,-48,13,-6,56,34,4,42,42,-20,127,-21,-71,5,-7,-20,92,41,21,48,1,-23,84,39,42,5,-62,3,2,104,-30,-24,-19,71,41,15,-44,-23,-17,-20, 
  /* [20][0][][] */ 17,-16,41,127,-24,11,2,-21,-98,19,-23,-6,1,-92,30,31,-17,-26,-24,-16,12,4,81,32,34,3,-16,59,16,16,-19,-3,-10,17,-6,-40,-83,-63,15,30,91,17,-8,-16,-37,-45,8,48,32,22,-109, 
  /* [21][0][][] */ 12,-4,6,-65,-16,-61,85,23,-26,5,83,-5,-4,-35,-60,30,31,-96,-69,24,-100,33,33,-47,85,59,-5,99,40,31,16,-17,-74,97,-7,83,-125,30,105,-17,-23,19,14,4,-27,-49,-4,108,19,-9,-127, 
  /* [22][0][][] */ -22,-4,15,13,-30,1,33,14,-21,-29,-59,-35,26,-3,-11,31,-67,-19,47,1,-16,-3,-33,13,58,11,36,-11,9,-24,127,26,-28,-14,33,66,-46,66,20,-9,-12,67,1,20,-9,-10,29,-11,-34,15,-2, 
  /* [23][0][][] */ -3,10,-27,16,24,40,-5,-25,-33,-10,-10,-7,-8,-15,24,14,104,5,-22,9,-24,45,19,-52,-6,-41,-44,24,127,-13,1,-8,-26,3,-44,-19,-4,-57,-7,22,-82,38,6,-14,8,102,-30,-11,-46,6,24, 
  /* [24][0][][] */ -17,-59,56,-33,119,-105,27,-41,-25,-127,24,13,69,-34,15,102,20,-12,17,-47,90,51,-89,-19,19,7,18,61,113,5,-4,-78,82,13,-21,-1,-1,-1,-50,53,-25,-35,15,66,2,-84,-66,-95,-19,9,38, 
  /* [25][0][][] */ -58,50,47,12,-38,-36,-43,-46,-67,-13,31,-26,0,-24,50,39,40,127,92,-68,82,47,2,-14,-9,-53,63,0,-11,33,36,22,61,99,-33,-1,18,57,-81,89,-53,-126,27,4,3,-82,-65,86,-39,-15,113, 
